{"learner":{"attributes":{"scikit_learn":"{\"_estimator_type\": \"classifier\"}"},"feature_names":[],"feature_types":[],"gradient_booster":{"model":{"cats":{"enc":[],"feature_segments":[],"sorted_idx":[]},"gbtree_model_param":{"num_parallel_tree":"1","num_trees":"120"},"iteration_indptr":[0,1,2,3,4,5,6,7,8,9,10,11,12,13,14,15,16,17,18,19,20,21,22,23,24,25,26,27,28,29,30,31,32,33,34,35,36,37,38,39,40,41,42,43,44,45,46,47,48,49,50,51,52,53,54,55,56,57,58,59,60,61,62,63,64,65,66,67,68,69,70,71,72,73,74,75,76,77,78,79,80,81,82,83,84,85,86,87,88,89,90,91,92,93,94,95,96,97,98,99,100,101,102,103,104,105,106,107,108,109,110,111,112,113,114,115,116,117,118,119,120],"tree_info":[0,0,0,0,0,0,0,0,0,0,0,0,0,0,0,0,0,0,0,0,0,0,0,0,0,0,0,0,0,0,0,0,0,0,0,0,0,0,0,0,0,0,0,0,0,0,0,0,0,0,0,0,0,0,0,0,0,0,0,0,0,0,0,0,0,0,0,0,0,0,0,0,0,0,0,0,0,0,0,0,0,0,0,0,0,0,0,0,0,0,0,0,0,0,0,0,0,0,0,0,0,0,0,0,0,0,0,0,0,0,0,0,0,0,0,0,0,0,0,0],"trees":[{"base_weights":[-8.365757E-3,6.8494335E-2,-1.8326819E-1,-2.4215664E-1,1.7442514E-1,-7.023315E-2,-3.303344E-1,-1.3636544E-2,-3.1792063E-2,-3.882987E-2,1.4768801E-2,-8.618067E-3,3.631315E-2,-4.3156393E-2,-1.4979637E-2],"categories":[],"categories_nodes":[],"categories_segments":[],"categories_sizes":[],"default_left":[0,0,0,0,0,0,0,0,0,0,0,0,0,0,0],"id":0,"left_children":[1,3,5,7,9,11,13,-1,-1,-1,-1,-1,-1,-1,-1],"loss_changes":[2.5609509E1,4.3596466E1,9.644665E0,3.6831188E0,6.7259674E0,6.5359797E0,7.4536304E0,0E0,0E0,0E0,0E0,0E0,0E0,0E0,0E0],"parents":[2147483647,0,0,1,1,2,2,3,3,4,4,5,5,6,6],"right_children":[2,4,6,8,10,12,14,-1,-1,-1,-1,-1,-1,-1,-1],"split_conditions":[4.589E3,4.294E3,2.27E3,2.763E3,2E1,2.117E3,2.357E3,-1.3636544E-2,-3.1792063E-2,-3.882987E-2,1.4768801E-2,-8.618067E-3,3.631315E-2,-4.3156393E-2,-1.4979637E-2],"split_indices":[2,2,5,4,5,5,5,0,0,0,0,0,0,0,0],"split_type":[0,0,0,0,0,0,0,0,0,0,0,0,0,0,0],"sum_hessian":[1.903108E3,1.3225345E3,5.805735E2,3.3597467E2,9.865599E2,3.2910278E2,2.5147072E2,2.3126324E2,1.04711426E2,1.4288109E1,9.722718E2,3.0787473E2,2.1228046E1,1.0103734E2,1.5043336E2],"tree_param":{"num_deleted":"0","num_feature":"6","num_nodes":"15","size_leaf_vector":"1"}},{"base_weights":[-7.754077E-3,7.924964E-2,-2.629519E-1,-1.8711933E-1,1.6413027E-1,-4.0747705E-1,-1.8377426E-1,-3.0944198E-2,-8.830761E-3,9.05159E-3,2.1837935E-2,-1.688488E-2,-3.789368E-2,9.343113E-2,-2.007924E-2],"categories":[],"categories_nodes":[],"categories_segments":[],"categories_sizes":[],"default_left":[0,0,0,0,0,0,0,0,0,0,0,0,0,0,0],"id":1,"left_children":[1,3,5,7,9,11,13,-1,-1,-1,-1,-1,-1,-1,-1],"loss_changes":[4.254371E1,3.2340096E1,5.499752E0,5.2557726E0,5.985939E0,2.1311436E0,2.9053276E1,0E0,0E0,0E0,0E0,0E0,0E0,0E0,0E0],"parents":[2147483647,0,0,1,1,2,2,3,3,4,4,5,5,6,6],"right_children":[2,4,6,8,10,12,14,-1,-1,-1,-1,-1,-1,-1,-1],"split_conditions":[5.823E3,4.563E3,3.982E3,1.26E3,2.421E3,1.065E3,4.232E3,-3.0944198E-2,-8.830761E-3,9.05159E-3,2.1837935E-2,-1.688488E-2,-3.789368E-2,9.343113E-2,-2.007924E-2],"split_indices":[3,3,0,3,5,5,0,0,0,0,0,0,0,0,0],"split_type":[0,0,0,0,0,0,0,0,0,0,0,0,0,0,0],"sum_hessian":[1.9141721E3,1.4280138E3,4.8615836E2,3.4479318E2,1.0832206E3,1.7060393E2,3.155544E2,9.459435E1,2.5019882E2,7.390632E2,3.4415738E2,4.4058502E1,1.26545425E2,1.4172949E1,3.0138147E2],"tree_param":{"num_deleted":"0","num_feature":"6","num_nodes":"15","size_leaf_vector":"1"}},{"base_weights":[1.6997138E-2,9.899101E-2,-1.7463504E-1,-1.8224609E-1,1.9014794E-1,-2.0965412E-1,1.908174E-1,-7.341128E-3,-3.0458799E-2,1.2682658E-2,2.9067867E-2,-1.1848685E-2,-3.165185E-2,1.1403579E-1,-2.229321E-3],"categories":[],"categories_nodes":[],"categories_segments":[],"categories_sizes":[],"default_left":[0,0,0,0,0,0,0,0,0,0,0,0,0,0,0],"id":2,"left_children":[1,3,5,7,9,11,13,-1,-1,-1,-1,-1,-1,-1,-1],"loss_changes":[2.998895E1,3.4298943E1,7.359743E0,5.8500013E0,5.4720497E0,5.92153E0,1.3684574E1,0E0,0E0,0E0,0E0,0E0,0E0,0E0,0E0],"parents":[2147483647,0,0,1,1,2,2,3,3,4,4,5,5,6,6],"right_children":[2,4,6,8,10,12,14,-1,-1,-1,-1,-1,-1,-1,-1],"split_conditions":[4.589E3,4.294E3,3.504E3,2.763E3,4.528E3,2.791E3,3.648E3,-7.341128E-3,-3.0458799E-2,1.2682658E-2,2.9067867E-2,-1.1848685E-2,-3.165185E-2,1.1403579E-1,-2.229321E-3],"split_indices":[2,2,4,4,1,4,4,0,0,0,0,0,0,0,0],"split_type":[0,0,0,0,0,0,0,0,0,0,0,0,0,0,0],"sum_hessian":[1.9064846E3,1.3355323E3,5.709522E2,3.2667532E2,1.00885706E3,5.2141455E2,4.9537663E1,2.2539182E2,1.012835E2,8.547523E2,1.5410474E2,3.931254E2,1.2828918E2,6.6237073E0,4.2913956E1],"tree_param":{"num_deleted":"0","num_feature":"6","num_nodes":"15","size_leaf_vector":"1"}},{"base_weights":[4.5715524E-3,8.723256E-2,-2.0540057E-1,-1.16903715E-1,1.5647608E-1,-2.876485E-1,-1.0502367E-1,2.098127E-2,-1.28098745E-2,-9.820347E-3,1.4460216E-2,-1.5700513E-2,-3.8457368E-2,-2.2306455E-2,-9.073869E-4],"categories":[],"categories_nodes":[],"categories_segments":[],"categories_sizes":[],"default_left":[0,0,0,0,0,0,0,0,0,0,0,0,0,0,0],"id":3,"left_children":[1,3,5,7,9,11,13,-1,-1,-1,-1,-1,-1,-1,-1],"loss_changes":[3.3113712E1,1.9367838E1,4.419037E0,5.733354E0,6.95418E0,5.1221466E0,3.9744525E0,0E0,0E0,0E0,0E0,0E0,0E0,0E0,0E0],"parents":[2147483647,0,0,1,1,2,2,3,3,4,4,5,5,6,6],"right_children":[2,4,6,8,10,12,14,-1,-1,-1,-1,-1,-1,-1,-1],"split_conditions":[4.947E3,4.681E3,8.896E3,5.5E2,9.82E2,7.628E3,4.063E3,2.098127E-2,-1.28098745E-2,-9.820347E-3,1.4460216E-2,-1.5700513E-2,-3.8457368E-2,-2.2306455E-2,-9.073869E-4],"split_indices":[3,3,3,4,0,3,0,0,0,0,0,0,0,0,0],"split_type":[0,0,0,0,0,0,0,0,0,0,0,0,0,0,0],"sum_hessian":[1.9058236E3,1.367899E3,5.3792456E2,3.462966E2,1.0216024E3,2.9463647E2,2.432881E2,3.4915173E1,3.113814E2,8.139048E1,9.402119E2,2.0134373E2,9.329273E1,8.451359E1,1.587745E2],"tree_param":{"num_deleted":"0","num_feature":"6","num_nodes":"15","size_leaf_vector":"1"}},{"base_weights":[3.2107905E-3,7.580213E-2,-1.9563276E-1,-1.382044E-1,1.4639944E-1,-4.1731983E-1,-1.24369934E-1,2.8295647E-2,-1.5225463E-2,1.8181626E-2,5.3688465E-3,-4.0313587E-2,-1.3251102E-2,1.9137193E-2,-1.598376E-2],"categories":[],"categories_nodes":[],"categories_segments":[],"categories_sizes":[],"default_left":[0,0,0,0,0,0,0,0,0,0,0,0,0,0,0],"id":4,"left_children":[1,3,5,7,9,11,13,-1,-1,-1,-1,-1,-1,-1,-1],"loss_changes":[2.7516655E1,2.1118671E1,8.002359E0,8.9605E0,6.7211304E0,2.610363E0,1.0667269E1,0E0,0E0,0E0,0E0,0E0,0E0,0E0,0E0],"parents":[2147483647,0,0,1,1,2,2,3,3,4,4,5,5,6,6],"right_children":[2,4,6,8,10,12,14,-1,-1,-1,-1,-1,-1,-1,-1],"split_conditions":[5.242E3,4.681E3,2.857E3,4.85E2,5.567E3,9.04E3,4.232E3,2.8295647E-2,-1.5225463E-2,1.8181626E-2,5.3688465E-3,-4.0313587E-2,-1.3251102E-2,1.9137193E-2,-1.598376E-2],"split_indices":[3,3,0,4,0,2,0,0,0,0,0,0,0,0,0],"split_type":[0,0,0,0,0,0,0,0,0,0,0,0,0,0,0],"sum_hessian":[1.9043081E3,1.3954817E3,5.088264E2,3.4591818E2,1.0495635E3,1.2259551E2,3.8623087E2,3.2582916E1,3.1333527E2,5.18674E2,5.308895E2,9.046541E1,3.213011E1,6.598563E1,3.2024524E2],"tree_param":{"num_deleted":"0","num_feature":"6","num_nodes":"15","size_leaf_vector":"1"}},{"base_weights":[9.438562E-3,7.58251E-2,-1.5489312E-1,-1.236828E-1,1.3625003E-1,-7.382194E-1,-1.3821052E-1,-3.7243536E-3,-2.4085734E-2,1.603412E-2,-4.2185495E-3,-7.169342E-2,-1.2741478E-2,9.730763E-2,-1.1749965E-2],"categories":[],"categories_nodes":[],"categories_segments":[],"categories_sizes":[],"default_left":[0,0,0,0,0,0,0,0,0,0,0,0,0,0,0],"id":5,"left_children":[1,3,5,7,9,11,13,-1,-1,-1,-1,-1,-1,-1,-1],"loss_changes":[2.0915731E1,1.6477882E1,5.2665577E0,4.33602E0,1.2727224E1,1.2388496E0,6.487521E0,0E0,0E0,0E0,0E0,0E0,0E0,0E0,0E0],"parents":[2147483647,0,0,1,1,2,2,3,3,4,4,5,5,6,6],"right_children":[2,4,6,8,10,12,14,-1,-1,-1,-1,-1,-1,-1,-1],"split_conditions":[4.589E3,4.294E3,1.67E2,2.763E3,2.92E3,8.602E3,1.88E2,-3.7243536E-3,-2.4085734E-2,1.603412E-2,-4.2185495E-3,-7.169342E-2,-1.2741478E-2,9.730763E-2,-1.1749965E-2],"split_indices":[2,2,1,4,4,0,1,0,0,0,0,0,0,0,0],"split_type":[0,0,0,0,0,0,0,0,0,0,0,0,0,0,0],"sum_hessian":[1.9151423E3,1.3644656E3,5.506768E2,3.1694528E2,1.0475203E3,1.410843E1,5.3656836E2,2.2177872E2,9.516656E1,7.819253E2,2.65595E2,1.0653927E1,3.4545033E0,2.5242982E0,5.3404407E2],"tree_param":{"num_deleted":"0","num_feature":"6","num_nodes":"15","size_leaf_vector":"1"}},{"base_weights":[-4.960682E-3,5.320571E-2,-1.9436812E-1,-1.2261642E-1,1.0435911E-1,-1.5790674E-1,-4.9932218E-1,3.231442E-2,-1.2838771E-2,-5.5723708E-2,8.944262E-3,-1.3309788E-2,8.911155E-2,-4.7469974E-2,4.3860046E-4],"categories":[],"categories_nodes":[],"categories_segments":[],"categories_sizes":[],"default_left":[0,0,0,0,0,0,0,0,0,0,0,0,0,0,0],"id":6,"left_children":[1,3,5,7,9,11,13,-1,-1,-1,-1,-1,-1,-1,-1],"loss_changes":[2.0938568E1,1.3090701E1,4.886015E0,6.6082687E0,6.7966557E0,4.4951334E0,2.2453318E0,0E0,0E0,0E0,0E0,0E0,0E0,0E0,0E0],"parents":[2147483647,0,0,1,1,2,2,3,3,4,4,5,5,6,6],"right_children":[2,4,6,8,10,12,14,-1,-1,-1,-1,-1,-1,-1,-1],"split_conditions":[5.922E3,4.563E3,4.809E3,4.15E2,4.8E1,4.79E3,1.1263E4,3.231442E-2,-1.2838771E-2,-5.5723708E-2,8.944262E-3,-1.3309788E-2,8.911155E-2,-4.7469974E-2,4.3860046E-4],"split_indices":[3,3,1,4,1,1,3,0,0,0,0,0,0,0,0],"split_type":[0,0,0,0,0,0,0,0,0,0,0,0,0,0,0],"sum_hessian":[1.898605E3,1.4530862E3,4.455188E2,3.2716672E2,1.1259194E3,3.9929544E2,4.6223354E1,2.130199E1,3.0586472E2,9.516219E0,1.1164032E3,3.975186E2,1.7768581E0,3.8815926E1,7.40743E0],"tree_param":{"num_deleted":"0","num_feature":"6","num_nodes":"15","size_leaf_vector":"1"}},{"base_weights":[-8.748621E-3,5.47382E-2,-2.1835877E-1,-2.7092266E-1,7.9067715E-2,-3.3160815E-1,-1.1656752E-1,2.394856E-3,-3.44107E-2,-5.1100396E-2,7.099454E-3,-4.9737733E-2,-2.1960057E-2,4.4131465E-2,-1.1168064E-2],"categories":[],"categories_nodes":[],"categories_segments":[],"categories_sizes":[],"default_left":[0,0,0,0,0,0,0,0,0,0,0,0,0,0,0],"id":7,"left_children":[1,3,5,7,9,11,13,-1,-1,-1,-1,-1,-1,-1,-1],"loss_changes":[2.5439127E1,1.1647502E1,5.0841885E0,4.909625E0,9.544778E0,3.305458E0,3.7027905E0,0E0,0E0,0E0,0E0,0E0,0E0,0E0,0E0],"parents":[2147483647,0,0,1,1,2,2,3,3,4,4,5,5,6,6],"right_children":[2,4,6,8,10,12,14,-1,-1,-1,-1,-1,-1,-1,-1],"split_conditions":[5.922E3,2.856E3,8.896E3,3.767E3,2E1,1.913E3,9.001E3,2.394856E-3,-3.44107E-2,-5.1100396E-2,7.099454E-3,-4.9737733E-2,-2.1960057E-2,4.4131465E-2,-1.1168064E-2],"split_indices":[3,2,3,0,5,0,3,0,0,0,0,0,0,0,0],"split_type":[0,0,0,0,0,0,0,0,0,0,0,0,0,0,0],"sum_hessian":[1.9097428E3,1.4663522E3,4.4339062E2,1.0122861E2,1.3651237E3,2.0881387E2,2.3457674E2,3.531204E1,6.5916565E1,1.7290934E1,1.3478326E3,3.2717514E1,1.7609636E2,7.051719E0,2.2752502E2],"tree_param":{"num_deleted":"0","num_feature":"6","num_nodes":"15","size_leaf_vector":"1"}},{"base_weights":[-5.909458E-3,5.1731307E-2,-1.9812565E-1,-1.9377735E-1,7.964571E-2,-3.2230985E-1,-1.316771E-1,-2.4710732E-2,1.3226557E-2,-1.332252E-2,8.083666E-3,-1.5037126E-2,-3.7992384E-2,1.0904786E-1,-1.5618031E-2],"categories":[],"categories_nodes":[],"categories_segments":[],"categories_sizes":[],"default_left":[0,0,0,0,0,0,0,0,0,0,0,0,0,0,0],"id":8,"left_children":[1,3,5,7,9,11,13,-1,-1,-1,-1,-1,-1,-1,-1],"loss_changes":[2.1153227E1,1.0081842E1,3.5920258E0,6.261804E0,6.9688063E0,3.0438967E0,2.7681171E1,0E0,0E0,0E0,0E0,0E0,0E0,0E0,0E0],"parents":[2147483647,0,0,1,1,2,2,3,3,4,4,5,5,6,6],"right_children":[2,4,6,8,10,12,14,-1,-1,-1,-1,-1,-1,-1,-1],"split_conditions":[5.823E3,4.294E3,4.063E3,4.563E3,9.82E2,2.143E3,4.232E3,-2.4710732E-2,1.3226557E-2,-1.332252E-2,8.083666E-3,-1.5037126E-2,-3.7992384E-2,1.0904786E-1,-1.5618031E-2],"split_indices":[3,2,0,3,0,4,0,0,0,0,0,0,0,0,0],"split_type":[0,0,0,0,0,0,0,0,0,0,0,0,0,0,0],"sum_hessian":[1.9072991E3,1.4678569E3,4.394422E2,1.4925034E2,1.3186066E3,1.5183347E2,2.8760873E2,1.1312861E2,3.612172E1,1.0491622E2,1.2136903E3,8.193183E1,6.9901634E1,1.0894714E1,2.7671402E2],"tree_param":{"num_deleted":"0","num_feature":"6","num_nodes":"15","size_leaf_vector":"1"}},{"base_weights":[-2.1371078E-2,2.670034E-2,-1.8352044E-1,1.05913684E-1,-3.8910314E-2,-8.241448E-2,-3.3316585E-1,9.172932E-4,4.1755438E-2,-1.6178355E-2,7.5231504E-4,-1.1448194E-2,1.4874188E-2,-8.565308E-3,-4.0061645E-2],"categories":[],"categories_nodes":[],"categories_segments":[],"categories_sizes":[],"default_left":[0,0,0,0,0,0,0,0,0,0,0,0,0,0,0],"id":9,"left_children":[1,3,5,7,9,11,13,-1,-1,-1,-1,-1,-1,-1,-1],"loss_changes":[1.4859578E1,7.648307E0,6.56791E0,2.6186813E1,6.355552E0,4.2847714E0,6.5946026E0,0E0,0E0,0E0,0E0,0E0,0E0,0E0,0E0],"parents":[2147483647,0,0,1,1,2,2,3,3,4,4,5,5,6,6],"right_children":[2,4,6,8,10,12,14,-1,-1,-1,-1,-1,-1,-1,-1],"split_conditions":[5.823E3,5.056E3,3.35E3,4.207E3,4.681E3,2.643E3,1.677E3,9.172932E-4,4.1755438E-2,-1.6178355E-2,7.5231504E-4,-1.1448194E-2,1.4874188E-2,-8.565308E-3,-4.0061645E-2],"split_indices":[3,0,1,0,3,5,5,0,0,0,0,0,0,0,0],"split_type":[0,0,0,0,0,0,0,0,0,0,0,0,0,0,0],"sum_hessian":[1.9047288E3,1.4698167E3,4.349121E2,6.656033E2,8.042134E2,2.604758E2,1.7443631E2,5.43292E2,1.223113E2,1.8286838E2,6.21345E2,2.1281293E2,4.766288E1,7.495732E1,9.947898E1],"tree_param":{"num_deleted":"0","num_feature":"6","num_nodes":"15","size_leaf_vector":"1"}},{"base_weights":[-8.665676E-4,4.2272698E-2,-1.4759259E-1,8.817194E-2,-5.814456E-2,-2.4031183E-1,-6.1828285E-2,1.5519251E-3,1.26922615E-2,-3.6918682E-3,-7.301991E-2,-8.670036E-3,-3.430563E-2,-4.0562704E-2,-1.399382E-4],"categories":[],"categories_nodes":[],"categories_segments":[],"categories_sizes":[],"default_left":[0,0,0,0,0,0,0,0,0,0,0,0,0,0,0],"id":10,"left_children":[1,3,5,7,9,11,13,-1,-1,-1,-1,-1,-1,-1,-1],"loss_changes":[1.2016016E1,6.7669E0,3.4150524E0,4.879224E0,4.6821647E0,5.0996923E0,6.028369E0,0E0,0E0,0E0,0E0,0E0,0E0,0E0,0E0],"parents":[2147483647,0,0,1,1,2,2,3,3,4,4,5,5,6,6],"right_children":[2,4,6,8,10,12,14,-1,-1,-1,-1,-1,-1,-1,-1],"split_conditions":[5.823E3,2.726E3,8.896E3,1.345E3,5.333E3,7.628E3,6.74E2,1.5519251E-3,1.26922615E-2,-3.6918682E-3,-7.301991E-2,-8.670036E-3,-3.430563E-2,-4.0562704E-2,-1.399382E-4],"split_indices":[3,4,3,4,1,3,1,0,0,0,0,0,0,0,0],"split_type":[0,0,0,0,0,0,0,0,0,0,0,0,0,0,0],"sum_hessian":[1.896383E3,1.4660563E3,4.303268E2,1.0062406E3,4.598157E2,2.0591327E2,2.2441354E2,5.0993835E2,4.9630222E2,4.5448996E2,5.325742E0,1.2205934E2,8.3853935E1,2.5798527E1,1.9861502E2],"tree_param":{"num_deleted":"0","num_feature":"6","num_nodes":"15","size_leaf_vector":"1"}},{"base_weights":[-1.2500287E-3,3.9740395E-2,-1.4359306E-1,-9.715424E-2,7.916432E-2,-4.2037743E-1,-8.844451E-2,-1.0182677E-2,2.1421444E-2,1.1219635E-2,1.4878489E-3,-8.769369E-3,-4.657124E-2,4.93406E-2,-8.713967E-3],"categories":[],"categories_nodes":[],"categories_segments":[],"categories_sizes":[],"default_left":[0,0,0,0,0,0,0,0,0,0,0,0,0,0,0],"id":11,"left_children":[1,3,5,7,9,11,13,-1,-1,-1,-1,-1,-1,-1,-1],"loss_changes":[1.1046321E1,7.9408636E0,6.4240236E0,3.6527083E0,4.2215075E0,3.4580936E0,5.1831703E0,0E0,0E0,0E0,0E0,0E0,0E0,0E0,0E0],"parents":[2147483647,0,0,1,1,2,2,3,3,4,4,5,5,6,6],"right_children":[2,4,6,8,10,12,14,-1,-1,-1,-1,-1,-1,-1,-1],"split_conditions":[5.823E3,4.681E3,2.096E3,4.951E3,5.567E3,1.799E3,2.322E3,-1.0182677E-2,2.1421444E-2,1.1219635E-2,1.4878489E-3,-8.769369E-3,-4.657124E-2,4.93406E-2,-8.713967E-3],"split_indices":[3,3,0,1,0,1,0,0,0,0,0,0,0,0,0],"split_type":[0,0,0,0,0,0,0,0,0,0,0,0,0,0,0],"sum_hessian":[1.8912332E3,1.4689434E3,4.2228976E2,3.281208E2,1.1408225E3,6.906045E1,3.532293E2,3.036977E2,2.4423111E1,5.6734186E2,5.7348065E2,2.421639E1,4.484406E1,9.147101E0,3.440822E2],"tree_param":{"num_deleted":"0","num_feature":"6","num_nodes":"15","size_leaf_vector":"1"}},{"base_weights":[-7.882312E-3,3.3063944E-2,-1.166396E-1,3.8193807E-2,-6.1731035E-1,-2.2640353E-2,-2.3198926E-1,2.4988072E-3,7.020838E-2,-6.92601E-2,-2.8008047E-2,-2.2509294E-2,6.4856396E-3,-6.129389E-3,-2.8580628E-2],"categories":[],"categories_nodes":[],"categories_segments":[],"categories_sizes":[],"default_left":[0,0,0,0,0,0,0,0,0,0,0,0,0,0,0],"id":12,"left_children":[1,3,5,7,9,11,13,-1,-1,-1,-1,-1,-1,-1,-1],"loss_changes":[8.485619E0,4.642632E0,5.645683E0,8.00181E0,4.2003393E-1,7.7578406E0,4.5251007E0,0E0,0E0,0E0,0E0,0E0,0E0,0E0,0E0],"parents":[2147483647,0,0,1,1,2,2,3,3,4,4,5,5,6,6],"right_children":[2,4,6,8,10,12,14,-1,-1,-1,-1,-1,-1,-1,-1],"split_conditions":[4.589E3,5.358E3,6.32E3,5.311E3,5.377E3,1.936E3,1.778E3,2.4988072E-3,7.020838E-2,-6.92601E-2,-2.8008047E-2,-2.2509294E-2,6.4856396E-3,-6.129389E-3,-2.8580628E-2],"split_indices":[2,1,0,1,1,0,5,0,0,0,0,0,0,0,0],"split_type":[0,0,0,0,0,0,0,0,0,0,0,0,0,0,0],"sum_hessian":[1.9036426E3,1.3834722E3,5.2017035E2,1.3735792E3,9.8929E0,2.8726907E2,2.3290129E2,1.3633146E3,1.0264662E1,3.965743E0,5.927158E0,8.1711555E1,2.0555751E2,1.0467879E2,1.282225E2],"tree_param":{"num_deleted":"0","num_feature":"6","num_nodes":"15","size_leaf_vector":"1"}},{"base_weights":[4.409795E-3,5.125911E-2,-1.254619E-1,-8.601226E-2,8.7431535E-2,-4.0228203E-1,-7.3154196E-2,-9.86716E-3,1.6143288E-2,8.731572E-3,-1.7462606E-2,3.0809782E-2,-3.764023E-2,7.1321435E-2,-8.419605E-3],"categories":[],"categories_nodes":[],"categories_segments":[],"categories_sizes":[],"default_left":[0,0,0,0,0,0,0,0,0,0,0,0,0,0,0],"id":13,"left_children":[1,3,5,7,9,11,13,-1,-1,-1,-1,-1,-1,-1,-1],"loss_changes":[1.1570094E1,6.946286E0,7.2702885E0,3.1611748E0,7.368594E0,4.4731255E0,1.3257805E1,0E0,0E0,0E0,0E0,0E0,0E0,0E0,0E0],"parents":[2147483647,0,0,1,1,2,2,3,3,4,4,5,5,6,6],"right_children":[2,4,6,8,10,12,14,-1,-1,-1,-1,-1,-1,-1,-1],"split_conditions":[4.791E3,4.188E3,1.936E3,1.0328E4,1.0851E4,7.77E2,2.176E3,-9.86716E-3,1.6143288E-2,8.731572E-3,-1.7462606E-2,3.0809782E-2,-3.764023E-2,7.1321435E-2,-8.419605E-3],"split_indices":[2,2,0,0,0,3,0,0,0,0,0,0,0,0,0],"split_type":[0,0,0,0,0,0,0,0,0,0,0,0,0,0,0],"sum_hessian":[1.8995428E3,1.3964127E3,5.0313013E2,2.9094028E2,1.1054724E3,7.889825E1,4.242319E2,2.580442E2,3.2896114E1,1.032764E3,7.270831E1,5.9203534E0,7.297789E1,1.2795965E1,4.114359E2],"tree_param":{"num_deleted":"0","num_feature":"6","num_nodes":"15","size_leaf_vector":"1"}},{"base_weights":[7.3324135E-3,-1.9172363E-1,3.1535383E-2,-1.289118E-1,-4.9408442E-1,7.568194E-2,-7.03896E-2,-1.4868728E-2,2.223761E-2,-5.1392425E-2,-4.37102E-3,4.678297E-3,2.3918964E-2,7.84225E-4,-1.5064578E-2],"categories":[],"categories_nodes":[],"categories_segments":[],"categories_sizes":[],"default_left":[0,0,0,0,0,0,0,0,0,0,0,0,0,0,0],"id":14,"left_children":[1,3,5,7,9,11,13,-1,-1,-1,-1,-1,-1,-1,-1],"loss_changes":[9.176097E0,3.8578005E0,7.6452913E0,4.0444574E0,2.256812E0,4.535689E0,4.859151E0,0E0,0E0,0E0,0E0,0E0,0E0,0E0,0E0],"parents":[2147483647,0,0,1,1,2,2,3,3,4,4,5,5,6,6],"right_children":[2,4,6,8,10,12,14,-1,-1,-1,-1,-1,-1,-1,-1],"split_conditions":[2.957E3,3.156E3,4.589E3,1.0391E4,9.385E3,3.672E3,6.808E3,-1.4868728E-2,2.223761E-2,-5.1392425E-2,-4.37102E-3,4.678297E-3,2.3918964E-2,7.84225E-4,-1.5064578E-2],"split_indices":[2,4,2,0,3,4,0,0,0,0,0,0,0,0,0],"split_type":[0,0,0,0,0,0,0,0,0,0,0,0,0,0,0],"sum_hessian":[1.9023898E3,2.0548314E2,1.6969066E3,1.7131984E2,3.4163292E1,1.1842377E3,5.12669E2,1.5076231E2,2.0557526E1,2.5197012E1,8.966281E0,1.1007024E3,8.353529E1,3.0569284E2,2.0697614E2],"tree_param":{"num_deleted":"0","num_feature":"6","num_nodes":"15","size_leaf_vector":"1"}},{"base_weights":[5.2558086E-3,4.7104776E-2,-1.449928E-1,1.2088562E-1,-2.8078936E-2,-4.8634288E-1,-1.15277804E-1,2.1615857E-3,3.0598614E-2,-3.285595E-2,-5.103376E-4,6.708546E-2,-4.4818223E-2,-2.0621452E-2,-3.4082925E-3],"categories":[],"categories_nodes":[],"categories_segments":[],"categories_sizes":[],"default_left":[0,0,0,0,0,0,0,0,0,0,0,0,0,0,0],"id":15,"left_children":[1,3,5,7,9,11,13,-1,-1,-1,-1,-1,-1,-1,-1],"loss_changes":[1.1977791E1,8.267765E0,4.1534204E0,1.8458195E1,6.130799E0,3.692657E0,3.9559708E0,0E0,0E0,0E0,0E0,0E0,0E0,0E0,0E0],"parents":[2147483647,0,0,1,1,2,2,3,3,4,4,5,5,6,6],"right_children":[2,4,6,8,10,12,14,-1,-1,-1,-1,-1,-1,-1,-1],"split_conditions":[5.823E3,5.567E3,6.276E3,4.207E3,1.168E3,3.42E2,4.028E3,2.1615857E-3,3.0598614E-2,-3.285595E-2,-5.103376E-4,6.708546E-2,-4.4818223E-2,-2.0621452E-2,-3.4082925E-3],"split_indices":[3,0,3,0,3,0,0,0,0,0,0,0,0,0,0],"split_type":[0,0,0,0,0,0,0,0,0,0,0,0,0,0,0],"sum_hessian":[1.9028545E3,1.4888495E3,4.1400494E2,7.511286E2,7.3772095E2,3.1923056E1,3.820819E2,5.535927E2,1.9753587E2,3.8631107E1,6.9908984E2,1.1395149E0,3.078354E1,1.2819208E2,2.5388983E2],"tree_param":{"num_deleted":"0","num_feature":"6","num_nodes":"15","size_leaf_vector":"1"}},{"base_weights":[-7.7025886E-3,-5.83034E-2,1.08701184E-1,-9.858215E-3,-4.2496598E-1,1.3456906E-1,-4.3559143E-1,3.1591067E-3,-1.2977905E-2,-3.793454E-2,1.0562412E-2,3.9602615E-2,7.6735285E-3,-7.334499E-2,-2.102811E-2],"categories":[],"categories_nodes":[],"categories_segments":[],"categories_sizes":[],"default_left":[0,0,0,0,0,0,0,0,0,0,0,0,0,0,0],"id":16,"left_children":[1,3,5,7,9,11,13,-1,-1,-1,-1,-1,-1,-1,-1],"loss_changes":[1.1238781E1,2.3617895E1,8.198804E0,8.846017E0,4.3164444E0,7.652462E0,1.9590645E0,0E0,0E0,0E0,0E0,0E0,0E0,0E0,0E0],"parents":[2147483647,0,0,1,1,2,2,3,3,4,4,5,5,6,6],"right_children":[2,4,6,8,10,12,14,-1,-1,-1,-1,-1,-1,-1,-1],"split_conditions":[2.357E3,2.348E3,1.1171E4,2.952E3,3.504E3,2.477E3,1.1328E4,3.1591067E-3,-1.2977905E-2,-3.793454E-2,1.0562412E-2,3.9602615E-2,7.6735285E-3,-7.334499E-2,-2.102811E-2],"split_indices":[5,5,0,4,4,5,0,0,0,0,0,0,0,0,0],"split_type":[0,0,0,0,0,0,0,0,0,0,0,0,0,0,0],"sum_hessian":[1.9059957E3,1.3288448E3,5.771508E2,1.174669E3,1.541759E2,5.516844E2,2.5466413E1,8.878572E2,2.8681183E2,1.4179562E2,1.2380284E1,5.228134E1,4.9940305E2,5.5890145E0,1.98774E1],"tree_param":{"num_deleted":"0","num_feature":"6","num_nodes":"15","size_leaf_vector":"1"}},{"base_weights":[7.022348E-3,4.042244E-2,-1.1381307E-1,1.2074696E-1,-1.5317334E-2,-2.3616256E-1,-3.1239442E-3,7.5539906E-4,9.485432E-2,-3.0820813E-2,4.5086717E-4,-4.4233244E-2,-1.4207519E-2,3.631235E-2,-3.2467912E-3],"categories":[],"categories_nodes":[],"categories_segments":[],"categories_sizes":[],"default_left":[0,0,0,0,0,0,0,0,0,0,0,0,0,0,0],"id":17,"left_children":[1,3,5,7,9,11,13,-1,-1,-1,-1,-1,-1,-1,-1],"loss_changes":[7.644889E0,6.6455045E0,5.5546675E0,7.205468E1,6.7992425E0,3.5162477E0,3.72304E0,0E0,0E0,0E0,0E0,0E0,0E0,0E0,0E0],"parents":[2147483647,0,0,1,1,2,2,3,3,4,4,5,5,6,6],"right_children":[2,4,6,8,10,12,14,-1,-1,-1,-1,-1,-1,-1,-1],"split_conditions":[5.823E3,4.488E3,8.896E3,4.207E3,1.168E3,1.913E3,3.06E2,7.5539906E-4,9.485432E-2,-3.0820813E-2,4.5086717E-4,-4.4233244E-2,-1.4207519E-2,3.631235E-2,-3.2467912E-3],"split_indices":[3,0,3,0,3,0,5,0,0,0,0,0,0,0,0],"split_type":[0,0,0,0,0,0,0,0,0,0,0,0,0,0,0],"sum_hessian":[1.892075E3,1.4828627E3,4.0921225E2,6.069882E2,8.7587445E2,1.9383E2,2.1538226E2,5.5046375E2,5.6524456E1,4.6017464E1,8.29857E2,2.8929857E1,1.6490015E2,1.5474513E1,1.9990775E2],"tree_param":{"num_deleted":"0","num_feature":"6","num_nodes":"15","size_leaf_vector":"1"}},{"base_weights":[-3.3334107E-3,-4.3924034E-2,8.8465795E-2,7.5157746E-3,-3.5756737E-1,7.1027644E-2,6.9039685E-1,3.2044633E-3,-7.4033807E-3,-1.7898768E-2,-4.120994E-2,2.3807041E-2,1.9325684E-3,7.756972E-2,5.5344254E-3],"categories":[],"categories_nodes":[],"categories_segments":[],"categories_sizes":[],"default_left":[0,0,0,0,0,0,0,0,0,0,0,0,0,0,0],"id":18,"left_children":[1,3,5,7,9,11,13,-1,-1,-1,-1,-1,-1,-1,-1],"loss_changes":[7.1207213E0,2.138039E1,6.1011252E0,3.7131884E0,3.8218918E0,6.0513763E0,2.774485E0,0E0,0E0,0E0,0E0,0E0,0E0,0E0,0E0],"parents":[2147483647,0,0,1,1,2,2,3,3,4,4,5,5,6,6],"right_children":[2,4,6,8,10,12,14,-1,-1,-1,-1,-1,-1,-1,-1],"split_conditions":[2.357E3,2.257E3,3.932E3,2.941E3,6.071E3,2.566E3,7.152E3,3.2044633E-3,-7.4033807E-3,-1.7898768E-2,-4.120994E-2,2.3807041E-2,1.9325684E-3,7.756972E-2,5.5344254E-3],"split_indices":[5,5,4,4,0,5,0,0,0,0,0,0,0,0,0],"split_type":[0,0,0,0,0,0,0,0,0,0,0,0,0,0,0],"sum_hessian":[1.9089513E3,1.3240299E3,5.8492145E2,1.1383141E3,1.8571582E2,5.695397E2,1.5381762E1,8.594204E2,2.7889368E2,1.01726685E2,8.398914E1,9.67115E1,4.728282E2,1.0224987E1,5.156775E0],"tree_param":{"num_deleted":"0","num_feature":"6","num_nodes":"15","size_leaf_vector":"1"}},{"base_weights":[-4.5970613E-3,2.7115919E-2,-1.23347156E-1,2.25471E-1,5.579486E-3,-8.393167E-2,-4.438136E-1,1.2184945E-2,7.606387E-2,-1.8931976E-2,1.6140824E-3,2.0418314E-3,-2.024281E-2,-4.786117E-2,2.6148323E-2],"categories":[],"categories_nodes":[],"categories_segments":[],"categories_sizes":[],"default_left":[0,0,0,0,0,0,0,0,0,0,0,0,0,0,0],"id":19,"left_children":[1,3,5,7,9,11,13,-1,-1,-1,-1,-1,-1,-1,-1],"loss_changes":[7.1620116E0,6.4111266E0,5.0258083E0,7.655203E0,4.7959547E0,6.6357994E0,5.3932934E0,0E0,0E0,0E0,0E0,0E0,0E0,0E0,0E0],"parents":[2147483647,0,0,1,1,2,2,3,3,4,4,5,5,6,6],"right_children":[2,4,6,8,10,12,14,-1,-1,-1,-1,-1,-1,-1,-1],"split_conditions":[5.922E3,4.85E2,1.0831E4,4.42E2,1.26E3,3.35E3,1.1172E4,1.2184945E-2,7.606387E-2,-1.8931976E-2,1.6140824E-3,2.0418314E-3,-2.024281E-2,-4.786117E-2,2.6148323E-2],"split_indices":[3,4,2,4,3,1,3,0,0,0,0,0,0,0,0],"split_type":[0,0,0,0,0,0,0,0,0,0,0,0,0,0,0],"sum_hessian":[1.8999082E3,1.5000751E3,3.998331E2,1.4599167E2,1.3540834E3,3.571657E2,4.2667374E1,1.337147E2,1.2276966E1,7.609395E1,1.2779894E3,2.1733907E2,1.3982666E2,3.5730297E1,6.937075E0],"tree_param":{"num_deleted":"0","num_feature":"6","num_nodes":"15","size_leaf_vector":"1"}},{"base_weights":[-1.3690923E-3,1.398333E-2,-2.9115412E-1,-1.9292295E-1,3.15733E-2,7.5544274E-1,-3.316515E-1,-5.4819463E-3,-3.7821412E-2,9.529477E-3,-1.3530727E-3,1.1743442E-1,-1.9047841E-2,5.2735046E-2,-2.9842703E-2],"categories":[],"categories_nodes":[],"categories_segments":[],"categories_sizes":[],"default_left":[0,0,0,0,0,0,0,0,0,0,0,0,0,0,0],"id":20,"left_children":[1,3,5,7,9,11,13,-1,-1,-1,-1,-1,-1,-1,-1],"loss_changes":[8.439027E0,6.562699E0,4.29562E0,4.886431E0,7.053565E0,3.0822403E0,4.0418634E0,0E0,0E0,0E0,0E0,0E0,0E0,0E0,0E0],"parents":[2147483647,0,0,1,1,2,2,3,3,4,4,5,5,6,6],"right_children":[2,4,6,8,10,12,14,-1,-1,-1,-1,-1,-1,-1,-1],"split_conditions":[1.1069E4,9.82E2,8.7E1,2.808E3,4.232E3,3.53E3,3.08E2,-5.4819463E-3,-3.7821412E-2,9.529477E-3,-1.3530727E-3,1.1743442E-1,-1.9047841E-2,5.2735046E-2,-2.9842703E-2],"split_indices":[0,0,5,4,0,1,1,0,0,0,0,0,0,0,0],"split_type":[0,0,0,0,0,0,0,0,0,0,0,0,0,0,0],"sum_hessian":[1.8949635E3,1.8005258E3,9.44377E1,1.402957E2,1.6602301E3,2.8604112E0,9.1577286E1,9.7984E1,4.23117E1,5.9124713E2,1.0689829E3,1.3877527E0,1.4726584E0,3.0728576E0,8.850443E1],"tree_param":{"num_deleted":"0","num_feature":"6","num_nodes":"15","size_leaf_vector":"1"}},{"base_weights":[2.2083996E-2,5.3388655E-2,-9.670191E-2,3.0646874E-2,1.7531233E-1,-6.221053E-1,-8.078467E-2,1.3808893E-3,1.9822069E-2,7.112204E-2,1.07379565E-2,1.2951051E-2,-7.478323E-2,3.368852E-4,-1.5042739E-2],"categories":[],"categories_nodes":[],"categories_segments":[],"categories_sizes":[],"default_left":[0,0,0,0,0,0,0,0,0,0,0,0,0,0,0],"id":21,"left_children":[1,3,5,7,9,11,13,-1,-1,-1,-1,-1,-1,-1,-1],"loss_changes":[7.063485E0,4.161765E0,3.2636013E0,3.6806135E0,6.8026876E0,2.9710617E0,3.517206E0,0E0,0E0,0E0,0E0,0E0,0E0,0E0,0E0],"parents":[2147483647,0,0,1,1,2,2,3,3,4,4,5,5,6,6],"right_children":[2,4,6,8,10,12,14,-1,-1,-1,-1,-1,-1,-1,-1],"split_conditions":[5.922E3,4.528E3,1.67E2,3.786E3,3.23E2,3.295E3,3.103E3,1.3808893E-3,1.9822069E-2,7.112204E-2,1.07379565E-2,1.2951051E-2,-7.478323E-2,3.368852E-4,-1.5042739E-2],"split_indices":[3,1,1,4,4,2,1,0,0,0,0,0,0,0,0],"split_type":[0,0,0,0,0,0,0,0,0,0,0,0,0,0,0],"sum_hessian":[1.8971371E3,1.5018835E3,3.952536E2,1.2668381E3,2.3504533E2,1.0502387E1,3.847512E2,1.194291E3,7.254719E1,1.1671381E1,2.2337396E2,3.1319451E0,7.370442E0,2.151805E2,1.6957071E2],"tree_param":{"num_deleted":"0","num_feature":"6","num_nodes":"15","size_leaf_vector":"1"}},{"base_weights":[-2.43213E-3,-6.8650156E-2,3.172572E-2,-2.4513965E-2,-5.582388E-1,1.9500358E-1,-2.7090194E-2,-3.8377199E-4,-5.9727848E-2,-4.7652073E-2,1.9190596E-2,4.1505318E-2,1.13906E-2,-3.1145168E-2,-3.8830674E-4],"categories":[],"categories_nodes":[],"categories_segments":[],"categories_sizes":[],"default_left":[0,0,0,0,0,0,0,0,0,0,0,0,0,0,0],"id":22,"left_children":[1,3,5,7,9,11,13,-1,-1,-1,-1,-1,-1,-1,-1],"loss_changes":[4.3128605E0,1.4007292E1,1.20857725E1,8.485352E0,1.7436905E0,5.6046295E0,7.454127E0,0E0,0E0,0E0,0E0,0E0,0E0,0E0,0E0],"parents":[2147483647,0,0,1,1,2,2,3,3,4,4,5,5,6,6],"right_children":[2,4,6,8,10,12,14,-1,-1,-1,-1,-1,-1,-1,-1],"split_conditions":[1.307E3,1.22E3,2.002E3,1.1549E4,1.0932E4,1.414E3,2.086E3,-3.8377199E-4,-5.9727848E-2,-4.7652073E-2,1.9190596E-2,4.1505318E-2,1.13906E-2,-3.1145168E-2,-3.8830674E-4],"split_indices":[4,4,4,3,2,4,4,0,0,0,0,0,0,0,0],"split_type":[0,0,0,0,0,0,0,0,0,0,0,0,0,0,0],"sum_hessian":[1.9048087E3,6.478616E2,1.2569471E3,5.952501E2,5.2611458E1,3.3225742E2,9.246897E2,5.8040845E2,1.4841656E1,5.0498035E1,2.1134229E0,4.520726E1,2.8705017E2,5.2527214E1,8.721625E2],"tree_param":{"num_deleted":"0","num_feature":"6","num_nodes":"15","size_leaf_vector":"1"}},{"base_weights":[1.3942876E-3,-7.53344E-2,4.2159874E-2,-5.9936054E-2,-6.556551E-2,9.17977E-1,-1.5616148E-2,5.2172694E-2,-5.8031324E-3,-1.16374365E-4,1.5131003E-1,-3.9938963E-3,9.920386E-3],"categories":[],"categories_nodes":[],"categories_segments":[],"categories_sizes":[],"default_left":[0,0,0,0,0,0,0,0,0,0,0,0,0],"id":23,"left_children":[1,3,5,-1,7,9,11,-1,-1,-1,-1,-1,-1],"loss_changes":[5.9657736E0,4.3071537E0,6.3038887E1,0E0,3.3176408E0,6.900179E1,5.6077666E0,0E0,0E0,0E0,0E0,0E0,0E0],"parents":[2147483647,0,0,1,1,2,2,4,4,5,5,6,6],"right_children":[2,4,6,-1,8,10,12,-1,-1,-1,-1,-1,-1],"split_conditions":[3.952E3,2E1,4.232E3,-5.9936054E-2,4.3E1,4.207E3,2.757E3,5.2172694E-2,-5.8031324E-3,-1.16374365E-4,1.5131003E-1,-3.9938963E-3,9.920386E-3],"split_indices":[0,5,0,0,5,0,5,0,0,0,0,0,0],"split_type":[0,0,0,0,0,0,0,0,0,0,0,0,0],"sum_hessian":[1.9052682E3,6.6075397E2,1.2445142E3,8.360305E0,6.523937E2,7.609619E1,1.168418E3,5.3875895E0,6.4700604E2,3.9646378E1,3.6449814E1,9.384622E2,2.2995578E2],"tree_param":{"num_deleted":"0","num_feature":"6","num_nodes":"13","size_leaf_vector":"1"}},{"base_weights":[3.875511E-4,-3.8632546E-2,8.83159E-2,8.865209E-3,-3.5129097E-1,1.11905925E-1,-4.227926E-1,-6.8665473E-3,5.012123E-3,3.8883593E-2,-2.9985845E-2,-1.587279E-2,1.2255672E-2,6.897421E-2,-4.1088466E-2],"categories":[],"categories_nodes":[],"categories_segments":[],"categories_sizes":[],"default_left":[0,0,0,0,0,0,0,0,0,0,0,0,0,0,0],"id":24,"left_children":[1,3,5,7,9,11,13,-1,-1,-1,-1,-1,-1,-1,-1],"loss_changes":[6.551916E0,1.9645672E1,7.1243687E0,5.8588185E0,3.61981E0,7.229446E0,3.4890904E0,0E0,0E0,0E0,0E0,0E0,0E0,0E0,0E0],"parents":[2147483647,0,0,1,1,2,2,3,3,4,4,5,5,6,6],"right_children":[2,4,6,8,10,12,14,-1,-1,-1,-1,-1,-1,-1,-1],"split_conditions":[2.357E3,2.27E3,1.1171E4,4.135E3,3.94E2,3.996E3,3.08E2,-6.8665473E-3,5.012123E-3,3.8883593E-2,-2.9985845E-2,-1.587279E-2,1.2255672E-2,6.897421E-2,-4.1088466E-2],"split_indices":[5,5,0,0,3,3,1,0,0,0,0,0,0,0,0],"split_type":[0,0,0,0,0,0,0,0,0,0,0,0,0,0,0],"sum_hessian":[1.9076436E3,1.3216802E3,5.8596344E2,1.1482192E3,1.73461E2,5.608583E2,2.510516E1,4.1571286E2,7.3250635E2,4.204352E0,1.6925665E2,6.5416176E1,4.954421E2,1.0964777E0,2.4008682E1],"tree_param":{"num_deleted":"0","num_feature":"6","num_nodes":"15","size_leaf_vector":"1"}},{"base_weights":[1.284654E-2,-3.2717475E-1,2.2116749E-2,-1.818139E-1,-7.988755E-1,8.8018805E-1,1.7351966E-2,9.7078435E-2,-2.3294576E-2,-6.9442764E-2,-3.8551493E-3,-1.9329159E-2,8.776278E-2,-1.3229167E-3,7.459094E-3],"categories":[],"categories_nodes":[],"categories_segments":[],"categories_sizes":[],"default_left":[0,0,0,0,0,0,0,0,0,0,0,0,0,0,0],"id":25,"left_children":[1,3,5,7,9,11,13,-1,-1,-1,-1,-1,-1,-1,-1],"loss_changes":[6.0085626E0,3.3238072E0,7.5662374E0,6.4528155E0,5.6163454E-1,2.7511654E0,4.7466E0,0E0,0E0,0E0,0E0,0E0,0E0,0E0,0E0],"parents":[2147483647,0,0,1,1,2,2,3,3,4,4,5,5,6,6],"right_children":[2,4,6,8,10,12,14,-1,-1,-1,-1,-1,-1,-1,-1],"split_conditions":[1.67E2,5.37E3,1.88E2,2.242E3,1.0889E4,4.55E2,2.357E3,9.7078435E-2,-2.3294576E-2,-6.9442764E-2,-3.8551493E-3,-1.9329159E-2,8.776278E-2,-1.3229167E-3,7.459094E-3],"split_indices":[1,2,1,3,3,5,5,0,0,0,0,0,0,0,0],"split_type":[0,0,0,0,0,0,0,0,0,0,0,0,0,0,0],"sum_hessian":[1.9029329E3,4.9593765E1,1.8533391E3,3.897007E1,1.0623699E1,9.219986E0,1.844119E3,2.0987945E0,3.6871273E1,9.58439E0,1.0393095E0,1.4750364E0,7.7449493E0,1.2753661E3,5.68753E2],"tree_param":{"num_deleted":"0","num_feature":"6","num_nodes":"15","size_leaf_vector":"1"}},{"base_weights":[4.903278E-3,7.425603E-2,-3.8382556E-2,-2.4179466E-2,1.6776259E0,-3.1892088E-1,-1.4804379E-2,-3.131328E-2,5.592142E-4,1.2351021E-1,2.684104E-1,-2.199506E-2,-7.149073E-2,-2.5021266E-2,-1.1925092E-5],"categories":[],"categories_nodes":[],"categories_segments":[],"categories_sizes":[],"default_left":[0,0,0,0,0,0,0,0,0,0,0,0,0,0,0],"id":26,"left_children":[1,3,5,7,9,11,13,-1,-1,-1,-1,-1,-1,-1,-1],"loss_changes":[5.7017617E0,1.1523441E2,7.7310967E0,7.8852997E0,4.2951736E0,2.0450315E0,4.7155128E0,0E0,0E0,0E0,0E0,0E0,0E0,0E0,0E0],"parents":[2147483647,0,0,1,1,2,2,3,3,4,4,5,5,6,6],"right_children":[2,4,6,8,10,12,14,-1,-1,-1,-1,-1,-1,-1,-1],"split_conditions":[4.232E3,4.207E3,4.763E3,4.73E2,1.0631E4,1.053E4,1.353E3,-3.131328E-2,5.592142E-4,1.2351021E-1,2.684104E-1,-2.199506E-2,-7.149073E-2,-2.5021266E-2,-1.1925092E-5],"split_indices":[0,0,0,1,2,2,3,0,0,0,0,0,0,0,0],"split_type":[0,0,0,0,0,0,0,0,0,0,0,0,0,0,0],"sum_hessian":[1.8973767E3,7.288671E2,1.1685096E3,6.876361E2,4.123104E1,8.9623505E1,1.0788861E3,5.289357E1,6.3474255E2,3.996496E1,1.2660836E0,8.462553E1,4.997974E0,4.9624035E1,1.0292621E3],"tree_param":{"num_deleted":"0","num_feature":"6","num_nodes":"15","size_leaf_vector":"1"}},{"base_weights":[-9.140834E-3,5.856367E-2,-3.8404617E-2,9.906359E-2,-1.3693717E-1,-9.225426E-2,2.8761996E-2,5.205773E-3,3.990337E-2,1.6783813E-2,-1.971032E-2,-3.049409E-3,-2.183744E-2,1.8502703E-2,-1.073215E-3],"categories":[],"categories_nodes":[],"categories_segments":[],"categories_sizes":[],"default_left":[0,0,0,0,0,0,0,0,0,0,0,0,0,0,0],"id":27,"left_children":[1,3,5,7,9,11,13,-1,-1,-1,-1,-1,-1,-1,-1],"loss_changes":[3.778694E0,4.571181E0,4.8183184E0,6.4543753E0,3.8161085E0,7.2214866E0,5.0702896E0,0E0,0E0,0E0,0E0,0E0,0E0,0E0,0E0],"parents":[2147483647,0,0,1,1,2,2,3,3,4,4,5,5,6,6],"right_children":[2,4,6,8,10,12,14,-1,-1,-1,-1,-1,-1,-1,-1],"split_conditions":[1.147E3,6.562E3,2.357E3,1.031E3,2.6E2,2.27E3,2.566E3,5.205773E-3,3.990337E-2,1.6783813E-2,-1.971032E-2,-3.049409E-3,-2.183744E-2,1.8502703E-2,-1.073215E-3],"split_indices":[5,3,5,5,5,5,5,0,0,0,0,0,0,0,0],"split_type":[0,0,0,0,0,0,0,0,0,0,0,0,0,0,0],"sum_hessian":[1.9050537E3,5.746186E2,1.330435E3,4.7641733E2,9.820125E1,7.3821265E2,5.922224E2,4.401513E2,3.6266033E1,2.333957E1,7.486168E1,5.68975E2,1.6923766E2,1.0130475E2,4.909177E2],"tree_param":{"num_deleted":"0","num_feature":"6","num_nodes":"15","size_leaf_vector":"1"}},{"base_weights":[9.287341E-3,8.444246E-2,-3.9438706E-2,-7.613334E-3,1.2478873E0,-6.172507E-1,-3.0758528E-2,4.753077E-3,-1.4261191E-2,1.1801193E-1,3.552449E-3,-5.556367E-2,3.5083059E-3,-9.653706E-3,1.3798679E-3],"categories":[],"categories_nodes":[],"categories_segments":[],"categories_sizes":[],"default_left":[0,0,0,0,0,0,0,0,0,0,0,0,0,0,0],"id":28,"left_children":[1,3,5,7,9,11,13,-1,-1,-1,-1,-1,-1,-1,-1],"loss_changes":[6.952134E0,7.997972E1,5.758193E0,7.936379E0,1.490995E1,8.9892244E-1,4.904976E0,0E0,0E0,0E0,0E0,0E0,0E0,0E0,0E0],"parents":[2147483647,0,0,1,1,2,2,3,3,4,4,5,5,6,6],"right_children":[2,4,6,8,10,12,14,-1,-1,-1,-1,-1,-1,-1,-1],"split_conditions":[4.296E3,4.207E3,4.42E3,2.808E3,4.232E3,3.415E3,1.345E3,4.753077E-3,-1.4261191E-2,1.1801193E-1,3.552449E-3,-5.556367E-2,3.5083059E-3,-9.653706E-3,1.3798679E-3],"split_indices":[0,0,0,4,0,4,4,0,0,0,0,0,0,0,0],"split_type":[0,0,0,0,0,0,0,0,0,0,0,0,0,0,0],"sum_hessian":[1.8965374E3,7.456747E2,1.1508627E3,6.9192096E2,5.3753735E1,1.5995305E1,1.1348674E3,4.972629E2,1.9465807E2,4.5025513E1,8.728222E0,1.4275639E1,1.7196666E0,3.9449612E2,7.403713E2],"tree_param":{"num_deleted":"0","num_feature":"6","num_nodes":"15","size_leaf_vector":"1"}},{"base_weights":[2.2046324E-2,-2.1571228E-1,3.306677E-2,-5.59884E-2,-5.505079E-1,-1.1136699E-1,4.8036523E-2,-9.356279E-3,1.0760435E-1,1.8618608E-2,-5.011642E-2,-3.2011196E-2,-4.5589325E-3,9.923197E-3,1.8164995E-3],"categories":[],"categories_nodes":[],"categories_segments":[],"categories_sizes":[],"default_left":[0,0,0,0,0,0,0,0,0,0,0,0,0,0,0],"id":29,"left_children":[1,3,5,7,9,11,13,-1,-1,-1,-1,-1,-1,-1,-1],"loss_changes":[5.0078464E0,4.4972553E0,3.9509113E0,5.1489778E0,1.7659521E0,2.6730964E0,3.1817698E0,0E0,0E0,0E0,0E0,0E0,0E0,0E0,0E0],"parents":[2147483647,0,0,1,1,2,2,3,3,4,4,5,5,6,6],"right_children":[2,4,6,8,10,12,14,-1,-1,-1,-1,-1,-1,-1,-1],"split_conditions":[1.26E3,8.76E2,2.856E3,1.1924E4,1.179E3,5.51E2,8.86E2,-9.356279E-3,1.0760435E-1,1.8618608E-2,-5.011642E-2,-3.2011196E-2,-4.5589325E-3,9.923197E-3,1.8164995E-3],"split_indices":[3,3,2,2,2,5,5,0,0,0,0,0,0,0,0],"split_type":[0,0,0,0,0,0,0,0,0,0,0,0,0,0,0],"sum_hessian":[1.9075195E3,8.367675E1,1.8238428E3,5.744039E1,2.6236357E1,1.7067429E2,1.6531685E3,5.592346E1,1.5169339E0,2.1366637E0,2.4099693E1,2.6039572E1,1.4463472E2,4.1226657E2,1.2409019E3],"tree_param":{"num_deleted":"0","num_feature":"6","num_nodes":"15","size_leaf_vector":"1"}},{"base_weights":[1.6722628E-3,1.3512877E-2,-2.3523489E-1,-1.8808667E-2,8.533658E-2,7.6845634E-1,-2.8283784E-1,9.187538E-4,-2.2184607E-2,-3.2537722E-3,1.1318455E-2,-3.6661082E-3,8.2185656E-2,-7.199061E-2,-1.8713573E-2],"categories":[],"categories_nodes":[],"categories_segments":[],"categories_sizes":[],"default_left":[0,0,0,0,0,0,0,0,0,0,0,0,0,0,0],"id":30,"left_children":[1,3,5,7,9,11,13,-1,-1,-1,-1,-1,-1,-1,-1],"loss_changes":[5.334592E0,4.205924E0,4.5424833E0,9.790223E0,3.9834614E0,9.678066E-1,2.4202905E0,0E0,0E0,0E0,0E0,0E0,0E0,0E0,0E0],"parents":[2147483647,0,0,1,1,2,2,3,3,4,4,5,5,6,6],"right_children":[2,4,6,8,10,12,14,-1,-1,-1,-1,-1,-1,-1,-1],"split_conditions":[1.1069E4,2.357E3,8.7E1,2.348E3,3.382E3,1.1276E4,1.1112E4,9.187538E-4,-2.2184607E-2,-3.2537722E-3,1.1318455E-2,-3.6661082E-3,8.2185656E-2,-7.199061E-2,-1.8713573E-2],"split_indices":[0,5,5,5,0,0,0,0,0,0,0,0,0,0,0],"split_type":[0,0,0,0,0,0,0,0,0,0,0,0,0,0,0],"sum_hessian":[1.8995966E3,1.8100721E3,8.952441E1,1.2488242E3,5.61248E2,3.368013E0,8.6156395E1,1.1186831E3,1.3014116E2,1.7307574E2,3.8817224E2,1.0109485E0,2.3570642E0,5.0508056E0,8.110558E1],"tree_param":{"num_deleted":"0","num_feature":"6","num_nodes":"15","size_leaf_vector":"1"}},{"base_weights":[4.0072915E-3,1.4754925E-2,-2.1214949E-1,-5.319246E-1,2.0900328E-2,4.1526487E-1,-2.7579656E-1,-4.847536E-2,3.2666642E-2,8.757534E-3,-1.169575E-3,1.2328094E-3,1.1824824E-1,-4.275822E-2,-1.23302955E-2],"categories":[],"categories_nodes":[],"categories_segments":[],"categories_sizes":[],"default_left":[0,0,0,0,0,0,0,0,0,0,0,0,0,0,0],"id":31,"left_children":[1,3,5,7,9,11,13,-1,-1,-1,-1,-1,-1,-1,-1],"loss_changes":[4.440555E0,6.127313E0,3.7299948E0,1.6585083E0,5.6682944E0,3.6905744E0,2.5236144E0,0E0,0E0,0E0,0E0,0E0,0E0,0E0,0E0],"parents":[2147483647,0,0,1,1,2,2,3,3,4,4,5,5,6,6],"right_children":[2,4,6,8,10,12,14,-1,-1,-1,-1,-1,-1,-1,-1],"split_conditions":[1.1069E4,2E1,2.77E2,1.0384E4,1.103E3,2.11E2,1.1276E4,-4.847536E-2,3.2666642E-2,8.757534E-3,-1.169575E-3,1.2328094E-3,1.1824824E-1,-4.275822E-2,-1.23302955E-2],"split_indices":[0,5,5,3,5,5,0,0,0,0,0,0,0,0,0],"split_type":[0,0,0,0,0,0,0,0,0,0,0,0,0,0,0],"sum_hessian":[1.9090701E3,1.819532E3,8.953808E1,1.9275497E1,1.8002565E3,7.7376914E0,8.1800385E1,1.8198465E1,1.0770319E0,5.147213E2,1.2855352E3,6.359614E0,1.3780776E0,2.5081352E1,5.6719032E1],"tree_param":{"num_deleted":"0","num_feature":"6","num_nodes":"15","size_leaf_vector":"1"}},{"base_weights":[-8.621432E-3,-1.3533763E-2,4.6267232E-1,4.0029205E-2,-4.782216E-2,1.5515263E-1,2.4842258E-1,-3.1050968E-3,8.754621E-2,-3.5405565E-2,-3.0840044E-3,-6.1419696E-2,3.7003715E-2],"categories":[],"categories_nodes":[],"categories_segments":[],"categories_sizes":[],"default_left":[0,0,0,0,0,0,0,0,0,0,0,0,0],"id":32,"left_children":[1,3,5,7,9,-1,11,-1,-1,-1,-1,-1,-1],"loss_changes":[4.4109893E0,3.461884E0,5.736682E0,6.1208008E1,4.188716E0,0E0,4.3393607E0,0E0,0E0,0E0,0E0,0E0,0E0],"parents":[2147483647,0,0,1,1,2,2,3,3,4,4,6,6],"right_children":[2,4,6,8,10,-1,12,-1,-1,-1,-1,-1,-1],"split_conditions":[1.1924E4,4.232E3,6.83E2,4.207E3,4.42E3,1.5515263E-1,2.436E3,-3.1050968E-3,8.754621E-2,-3.5405565E-2,-3.0840044E-3,-6.1419696E-2,3.7003715E-2],"split_indices":[2,0,3,0,0,0,3,0,0,0,0,0,0],"split_type":[0,0,0,0,0,0,0,0,0,0,0,0,0],"sum_hessian":[1.9015659E3,1.8829115E3,1.865445E1,7.348352E2,1.1480763E3,1.3433311E0,1.731112E1,6.8460223E2,5.0232983E1,2.5275467E1,1.1228009E3,2.562887E0,1.4748231E1],"tree_param":{"num_deleted":"0","num_feature":"6","num_nodes":"13","size_leaf_vector":"1"}},{"base_weights":[4.9598725E-3,3.3865258E-2,-8.139104E-2,2.4540922E-2,5.203157E-1,-1.5050232E-1,1.3488142E-1,2.7962832E-3,-2.2017403E-2,1.0283056E-1,4.137954E-3,-1.6515303E-2,5.118536E-3,2.5295384E-2,9.1488E-4],"categories":[],"categories_nodes":[],"categories_segments":[],"categories_sizes":[],"default_left":[0,0,0,0,0,0,0,0,0,0,0,0,0,0,0],"id":33,"left_children":[1,3,5,7,9,11,13,-1,-1,-1,-1,-1,-1,-1,-1],"loss_changes":[4.7619686E0,6.4700356E0,7.1721845E0,4.3900495E0,9.552577E0,4.369504E0,2.601703E0,0E0,0E0,0E0,0E0,0E0,0E0,0E0,0E0],"parents":[2147483647,0,0,1,1,2,2,3,3,4,4,5,5,6,6],"right_children":[2,4,6,8,10,12,14,-1,-1,-1,-1,-1,-1,-1,-1],"split_conditions":[2.92E3,2.861E3,3.786E3,2.791E3,1.351E3,2.719E3,3.903E3,2.7962832E-3,-2.2017403E-2,1.0283056E-1,4.137954E-3,-1.6515303E-2,5.118536E-3,2.5295384E-2,9.1488E-4],"split_indices":[4,4,4,4,5,5,4,0,0,0,0,0,0,0,0],"split_type":[0,0,0,0,0,0,0,0,0,0,0,0,0,0,0],"sum_hessian":[1.9057307E3,1.4282437E3,4.7748715E2,1.4024125E3,2.5831156E1,3.620847E2,1.1540245E2,1.3561864E3,4.6226048E1,9.149591E0,1.6681564E1,2.8721457E2,7.487012E1,4.6112774E1,6.928967E1],"tree_param":{"num_deleted":"0","num_feature":"6","num_nodes":"15","size_leaf_vector":"1"}},{"base_weights":[-5.065283E-3,2.7081706E-2,-1.02034986E-1,-5.7683703E-2,9.916694E-2,-3.0545577E-1,-4.2280614E-2,-1.36463E-3,-3.3953544E-2,2.0040657E-2,4.7369953E-3,-1.5580205E-2,-4.6403844E-2,1.6613815E-2,-7.070384E-3],"categories":[],"categories_nodes":[],"categories_segments":[],"categories_sizes":[],"default_left":[0,0,0,0,0,0,0,0,0,0,0,0,0,0,0],"id":34,"left_children":[1,3,5,7,9,11,13,-1,-1,-1,-1,-1,-1,-1,-1],"loss_changes":[5.941105E0,8.752481E0,5.754801E0,9.803793E0,4.6651483E0,3.157155E0,4.2578435E0,0E0,0E0,0E0,0E0,0E0,0E0,0E0,0E0],"parents":[2147483647,0,0,1,1,2,2,3,3,4,4,5,5,6,6],"right_children":[2,4,6,8,10,12,14,-1,-1,-1,-1,-1,-1,-1,-1],"split_conditions":[2.92E3,1.345E3,3.125E3,1.22E3,1.652E3,3.116E3,3.198E3,-1.36463E-3,-3.3953544E-2,2.0040657E-2,4.7369953E-3,-1.5580205E-2,-4.6403844E-2,1.6613815E-2,-7.070384E-3],"split_indices":[4,4,4,4,4,4,4,0,0,0,0,0,0,0,0],"split_type":[0,0,0,0,0,0,0,0,0,0,0,0,0,0,0],"sum_hessian":[1.903973E3,1.4304702E3,4.7350278E2,6.575056E2,7.729646E2,1.0657601E2,3.6692676E2,5.9287524E2,6.463037E1,1.6034258E2,6.126221E2,7.7172714E1,2.9403303E1,5.658946E1,3.103373E2],"tree_param":{"num_deleted":"0","num_feature":"6","num_nodes":"15","size_leaf_vector":"1"}},{"base_weights":[-3.295263E-3,5.0116062E-2,-3.7276592E-2,-1.3952646E-2,8.51154E-1,-3.639841E-1,-2.4768952E-2,-1.0535383E-2,1.2980729E-3,7.40986E-2,-9.014479E-3,-3.80788E-2,1.0526553E-1,-5.847934E-3,2.5901245E-3],"categories":[],"categories_nodes":[],"categories_segments":[],"categories_sizes":[],"default_left":[0,0,0,0,0,0,0,0,0,0,0,0,0,0,0],"id":35,"left_children":[1,3,5,7,9,11,13,-1,-1,-1,-1,-1,-1,-1,-1],"loss_changes":[3.470462E0,3.8170567E1,4.766122E0,2.4518728E0,4.090172E0,8.719036E0,3.1137247E0,0E0,0E0,0E0,0E0,0E0,0E0,0E0,0E0],"parents":[2147483647,0,0,1,1,2,2,3,3,4,4,5,5,6,6],"right_children":[2,4,6,8,10,12,14,-1,-1,-1,-1,-1,-1,-1,-1],"split_conditions":[4.232E3,4.207E3,1.071E3,9.82E2,3.294E3,1.1924E4,8.213E3,-1.0535383E-2,1.2980729E-3,7.40986E-2,-9.014479E-3,-3.80788E-2,1.0526553E-1,-5.847934E-3,2.5901245E-3],"split_indices":[0,0,3,0,5,2,0,0,0,0,0,0,0,0,0],"split_type":[0,0,0,0,0,0,0,0,0,0,0,0,0,0,0],"sum_hessian":[1.9100839E3,7.42523E2,1.1675609E3,6.884425E2,5.40805E1,4.20145E1,1.1255464E3,1.3977109E2,5.486714E2,5.0208496E1,3.8720038E0,4.006013E1,1.9543669E0,6.096565E2,5.158899E2],"tree_param":{"num_deleted":"0","num_feature":"6","num_nodes":"15","size_leaf_vector":"1"}},{"base_weights":[7.0464816E-3,6.909546E-2,-3.3045817E-2,-2.3380786E-3,9.4118285E-1,-5.576548E-1,-2.5187014E-2,5.187418E-3,-1.2433841E-2,1.4338865E-2,8.0903E-2,-6.2219232E-2,1.14896055E-2,-4.203075E-3,6.879049E-3],"categories":[],"categories_nodes":[],"categories_segments":[],"categories_sizes":[],"default_left":[0,0,0,0,0,0,0,0,0,0,0,0,0,0,0],"id":36,"left_children":[1,3,5,7,9,11,13,-1,-1,-1,-1,-1,-1,-1,-1],"loss_changes":[4.746833E0,4.665835E1,4.7654095E0,7.1395636E0,2.8476562E0,2.7451606E0,3.4807942E0,0E0,0E0,0E0,0E0,0E0,0E0,0E0,0E0],"parents":[2147483647,0,0,1,1,2,2,3,3,4,4,5,5,6,6],"right_children":[2,4,6,8,10,12,14,-1,-1,-1,-1,-1,-1,-1,-1],"split_conditions":[4.232E3,4.207E3,4.364E3,2.763E3,3.91E2,2.618E3,2.793E3,5.187418E-3,-1.2433841E-2,1.4338865E-2,8.0903E-2,-6.2219232E-2,1.14896055E-2,-4.203075E-3,6.879049E-3],"split_indices":[0,0,0,4,5,5,5,0,0,0,0,0,0,0,0],"split_type":[0,0,0,0,0,0,0,0,0,0,0,0,0,0,0],"sum_hessian":[1.906214E3,7.4793945E2,1.1582744E3,6.922351E2,5.570434E1,1.606267E1,1.1422118E3,4.8150482E2,2.1073032E2,4.993048E0,5.0711296E1,1.2142784E1,3.919886E0,9.1711066E2,2.2510115E2],"tree_param":{"num_deleted":"0","num_feature":"6","num_nodes":"15","size_leaf_vector":"1"}},{"base_weights":[-2.826214E-3,9.024597E-3,-2.4488999E-1,3.5179254E-2,-9.283932E-2,-5.7433464E-2,-4.1986832E-1,1.8304881E-3,2.0735197E-2,-2.318008E-2,1.1112506E-3,-1.0403728E-2,8.26455E-2,-3.99312E-2,8.658383E-3],"categories":[],"categories_nodes":[],"categories_segments":[],"categories_sizes":[],"default_left":[0,0,0,0,0,0,0,0,0,0,0,0,0,0,0],"id":37,"left_children":[1,3,5,7,9,11,13,-1,-1,-1,-1,-1,-1,-1,-1],"loss_changes":[5.4966335E0,4.870533E0,2.9092245E0,4.000784E0,7.854019E0,3.6448777E0,1.9837227E0,0E0,0E0,0E0,0E0,0E0,0E0,0E0,0E0],"parents":[2147483647,0,0,1,1,2,2,3,3,4,4,5,5,6,6],"right_children":[2,4,6,8,10,12,14,-1,-1,-1,-1,-1,-1,-1,-1],"split_conditions":[1.1069E4,5.922E3,1.89E3,3.82E3,4.063E3,1.777E3,3.504E3,1.8304881E-3,2.0735197E-2,-2.318008E-2,1.1112506E-3,-1.0403728E-2,8.26455E-2,-3.99312E-2,8.658383E-3],"split_indices":[0,3,4,4,0,4,4,0,0,0,0,0,0,0,0],"split_type":[0,0,0,0,0,0,0,0,0,0,0,0,0,0,0],"sum_hessian":[1.9143329E3,1.8259042E3,8.842879E1,1.4533862E3,3.725179E2,4.3333397E1,4.509539E1,1.3787928E3,7.4593376E1,1.3033719E2,2.4218073E2,4.1453857E1,1.8795371E0,3.925738E1,5.8380075E0],"tree_param":{"num_deleted":"0","num_feature":"6","num_nodes":"15","size_leaf_vector":"1"}},{"base_weights":[-1.1497526E-2,-3.0223182E-3,-6.338185E-1,1.7109897E-2,-1.11353524E-1,-7.914273E-1,2.635745E-1,4.079846E-3,-4.8170327E-3,-2.4501452E-2,5.4231763E-4,-7.473329E-2,-3.1463303E-2,1.084684E-1,-5.7249624E-2],"categories":[],"categories_nodes":[],"categories_segments":[],"categories_sizes":[],"default_left":[0,0,0,0,0,0,0,0,0,0,0,0,0,0,0],"id":38,"left_children":[1,3,5,7,9,11,13,-1,-1,-1,-1,-1,-1,-1,-1],"loss_changes":[1.0048068E1,4.1039762E0,3.8288946E0,4.161461E0,6.7922373E0,8.841219E-1,5.862509E0,0E0,0E0,0E0,0E0,0E0,0E0,0E0,0E0],"parents":[2147483647,0,0,1,1,2,2,3,3,4,4,5,5,6,6],"right_children":[2,4,6,8,10,12,14,-1,-1,-1,-1,-1,-1,-1,-1],"split_conditions":[1.1832E4,7.044E3,4.593E3,2.726E3,8.896E3,3.06E3,4.894E3,4.079846E-3,-4.8170327E-3,-2.4501452E-2,5.4231763E-4,-7.473329E-2,-3.1463303E-2,1.084684E-1,-5.7249624E-2],"split_indices":[3,3,1,4,3,1,1,0,0,0,0,0,0,0,0],"split_type":[0,0,0,0,0,0,0,0,0,0,0,0,0,0,0],"sum_hessian":[1.9044631E3,1.8798666E3,2.45965E1,1.5859724E3,2.9389423E2,2.102242E1,3.574079E0,1.102932E3,4.8304034E2,1.1030391E2,1.8359032E2,1.4483489E1,6.5389323E0,1.50765E0,2.0664291E0],"tree_param":{"num_deleted":"0","num_feature":"6","num_nodes":"15","size_leaf_vector":"1"}},{"base_weights":[-1.635872E-2,1.2704574E-1,-3.1800203E-2,1.715084E-1,-6.607549E-1,-1.4367104E-1,-5.2452567E-3,9.668175E-3,5.6583308E-2,-6.484502E-2,-1.4230238E-3,-3.3287738E-2,-9.162291E-3,-1.4545211E-3,2.026901E-2],"categories":[],"categories_nodes":[],"categories_segments":[],"categories_sizes":[],"default_left":[0,0,0,0,0,0,0,0,0,0,0,0,0,0,0],"id":39,"left_children":[1,3,5,7,9,11,13,-1,-1,-1,-1,-1,-1,-1,-1],"loss_changes":[4.2175894E0,6.5995336E0,5.1048546E0,4.693324E0,9.583087E-1,2.5695462E0,4.6546803E0,0E0,0E0,0E0,0E0,0E0,0E0,0E0,0E0],"parents":[2147483647,0,0,1,1,2,2,3,3,4,4,5,5,6,6],"right_children":[2,4,6,8,10,12,14,-1,-1,-1,-1,-1,-1,-1,-1],"split_conditions":[4.85E2,1.0578E4,1.062E3,4.42E2,2.545E3,5.55E2,3.48E3,9.668175E-3,5.6583308E-2,-6.484502E-2,-1.4230238E-3,-3.3287738E-2,-9.162291E-3,-1.4545211E-3,2.026901E-2],"split_indices":[4,3,4,4,5,4,5,0,0,0,0,0,0,0,0],"split_type":[0,0,0,0,0,0,0,0,0,0,0,0,0,0,0],"sum_hessian":[1.9018145E3,1.8417361E2,1.7176409E3,1.7507486E2,9.09875E0,3.2865802E2,1.3889829E3,1.6107172E2,1.4003148E1,7.1679883E0,1.930762E0,3.047713E1,2.9818088E2,1.3236976E3,6.52852E1],"tree_param":{"num_deleted":"0","num_feature":"6","num_nodes":"15","size_leaf_vector":"1"}},{"base_weights":[4.0662875E-3,1.412298E-2,-2.1162689E-1,7.5728227E-3,3.9530274E-1,6.0217425E-2,-3.9748684E-1,1.1818869E-3,-2.3186397E-2,2.2792885E-2,1.3685013E-1,-1.4099952E-2,5.7816386E-2,-3.660015E-2,7.253802E-2],"categories":[],"categories_nodes":[],"categories_segments":[],"categories_sizes":[],"default_left":[0,0,0,0,0,0,0,0,0,0,0,0,0,0,0],"id":40,"left_children":[1,3,5,7,9,11,13,-1,-1,-1,-1,-1,-1,-1,-1],"loss_changes":[4.1391597E0,4.5481524E0,4.3189077E0,3.8440967E0,3.9810543E0,5.6710024E0,4.376955E0,0E0,0E0,0E0,0E0,0E0,0E0,0E0,0E0],"parents":[2147483647,0,0,1,1,2,2,3,3,4,4,5,5,6,6],"right_children":[2,4,6,8,10,12,14,-1,-1,-1,-1,-1,-1,-1,-1],"split_conditions":[1.1069E4,1.1719E4,1.427E3,1.1036E4,1.0534E4,1.157E3,3.631E3,1.1818869E-3,-2.3186397E-2,2.2792885E-2,1.3685013E-1,-1.4099952E-2,5.7816386E-2,-3.660015E-2,7.253802E-2],"split_indices":[0,2,4,2,0,4,5,0,0,0,0,0,0,0,0],"split_type":[0,0,0,0,0,0,0,0,0,0,0,0,0,0,0],"sum_hessian":[1.9058077E3,1.8218008E3,8.400692E1,1.7920266E3,2.9774147E1,3.4387188E1,4.9619728E1,1.7505914E3,4.143527E1,2.8591175E1,1.182973E0,2.588265E1,8.504539E0,4.805751E1,1.5622187E0],"tree_param":{"num_deleted":"0","num_feature":"6","num_nodes":"15","size_leaf_vector":"1"}},{"base_weights":[-2.786799E-4,3.851697E-2,-5.8098033E-2,1.7319161E-2,2.0578825E-1,-2.5999683E-1,-4.29732E-3,-2.2131323E-3,1.0838125E-2,1.0892084E-1,1.2339367E-2,1.2636725E-2,-2.422495E-2,2.0115761E-2,-2.5572353E-3],"categories":[],"categories_nodes":[],"categories_segments":[],"categories_sizes":[],"default_left":[0,0,0,0,0,0,0,0,0,0,0,0,0,0,0],"id":41,"left_children":[1,3,5,7,9,11,13,-1,-1,-1,-1,-1,-1,-1,-1],"loss_changes":[4.2922997E0,4.056907E0,8.345161E0,5.4115906E0,7.4575143E0,2.9405842E0,4.3082304E0,0E0,0E0,0E0,0E0,0E0,0E0,0E0,0E0],"parents":[2147483647,0,0,1,1,2,2,3,3,4,4,5,5,6,6],"right_children":[2,4,6,8,10,12,14,-1,-1,-1,-1,-1,-1,-1,-1],"split_conditions":[2.27E3,1.994E3,2.357E3,8.213E3,3.86E2,1.45E3,2.477E3,-2.2131323E-3,1.0838125E-2,1.0892084E-1,1.2339367E-2,1.2636725E-2,-2.422495E-2,2.0115761E-2,-2.5572353E-3],"split_indices":[5,5,5,0,0,3,5,0,0,0,0,0,0,0,0],"split_type":[0,0,0,0,0,0,0,0,0,0,0,0,0,0,0],"sum_hessian":[1.9115258E3,1.1441545E3,7.673713E2,1.0164467E3,1.277078E2,1.6065314E2,6.067182E2,7.367333E2,2.7971344E2,4.367615E0,1.2334019E2,1.4678076E1,1.4597505E2,5.8441235E1,5.482769E2],"tree_param":{"num_deleted":"0","num_feature":"6","num_nodes":"15","size_leaf_vector":"1"}},{"base_weights":[-2.6337788E-2,-2.1530854E-2,-5.8339095E-1,-2.5251001E-2,4.1444576E-1,-5.3750608E-2,1.5738793E-2,-1.2983204E-3,-1.3392169E-2,3.498435E-3,1.05686195E-1],"categories":[],"categories_nodes":[],"categories_segments":[],"categories_sizes":[],"default_left":[0,0,0,0,0,0,0,0,0,0,0],"id":42,"left_children":[1,3,5,7,9,-1,-1,-1,-1,-1,-1],"loss_changes":[5.0797E0,3.0701506E0,1.2527261E0,2.3974142E0,5.326062E0,0E0,0E0,0E0,0E0,0E0,0E0],"parents":[2147483647,0,0,1,1,2,2,3,3,4,4],"right_children":[2,4,6,8,10,-1,-1,-1,-1,-1,-1],"split_conditions":[5.358E3,5.311E3,1.0232E4,1.0851E4,9.215E3,-5.3750608E-2,1.5738793E-2,-1.2983204E-3,-1.3392169E-2,3.498435E-3,1.05686195E-1],"split_indices":[1,1,2,0,0,0,0,0,0,0,0],"split_type":[0,0,0,0,0,0,0,0,0,0,0],"sum_hessian":[1.9007168E3,1.8854851E3,1.5231613E1,1.8704667E3,1.5018435E1,1.3804486E1,1.4271276E0,1.7598851E3,1.1058157E2,1.1403754E1,3.6146808E0],"tree_param":{"num_deleted":"0","num_feature":"6","num_nodes":"11","size_leaf_vector":"1"}},{"base_weights":[-6.126098E-3,5.2080393E-2,-4.3992117E-2,-3.9358027E-3,6.9017315E-1,-2.6526237E-1,-2.4670588E-2,-2.501487E-2,1.7070948E-3,5.738206E-2,-2.2055812E-2,-2.3066035E-2,7.0568055E-2,4.7709555E-3,-6.307875E-3],"categories":[],"categories_nodes":[],"categories_segments":[],"categories_sizes":[],"default_left":[0,0,0,0,0,0,0,0,0,0,0,0,0,0,0],"id":43,"left_children":[1,3,5,7,9,11,13,-1,-1,-1,-1,-1,-1,-1,-1],"loss_changes":[4.199578E0,2.6847528E1,4.928469E0,5.4021955E0,1.7845402E0,2.7046485E0,4.858761E0,0E0,0E0,0E0,0E0,0E0,0E0,0E0,0E0],"parents":[2147483647,0,0,1,1,2,2,3,3,4,4,5,5,6,6],"right_children":[2,4,6,8,10,12,14,-1,-1,-1,-1,-1,-1,-1,-1],"split_conditions":[4.232E3,4.207E3,4.81E3,4.73E2,5.27E3,5.2E3,1.478E3,-2.501487E-2,1.7070948E-3,5.738206E-2,-2.2055812E-2,-2.3066035E-2,7.0568055E-2,4.7709555E-3,-6.307875E-3],"split_indices":[0,0,0,1,1,1,5,0,0,0,0,0,0,0,0],"split_type":[0,0,0,0,0,0,0,0,0,0,0,0,0,0,0],"sum_hessian":[1.9033534E3,7.500398E2,1.1533136E3,6.9042346E2,5.9616314E1,9.159849E1,1.0617152E3,5.1381516E1,6.3904193E2,5.823948E1,1.3768342E0,9.0527504E1,1.0709825E0,4.1532172E2,6.4639343E2],"tree_param":{"num_deleted":"0","num_feature":"6","num_nodes":"15","size_leaf_vector":"1"}},{"base_weights":[1.8876364E-2,-2.1074703E-1,2.5036942E-2,-8.470401E-2,-8.1328666E-1,5.7951605E-1,2.1756303E-2,-6.9419615E-2,1.7367183E-3,-3.6942656E-3,-7.3066026E-2,2.9824716E-3,8.7370194E-2,1.3538208E-3,2.3247978E-2],"categories":[],"categories_nodes":[],"categories_segments":[],"categories_sizes":[],"default_left":[0,0,0,0,0,0,0,0,0,0,0,0,0,0,0],"id":44,"left_children":[1,3,5,7,9,11,13,-1,-1,-1,-1,-1,-1,-1,-1],"loss_changes":[2.6862423E0,3.6998458E0,3.3463867E0,3.5314658E0,6.077056E-1,2.9673705E0,2.3818738E0,0E0,0E0,0E0,0E0,0E0,0E0,0E0,0E0],"parents":[2147483647,0,0,1,1,2,2,3,3,4,4,5,5,6,6],"right_children":[2,4,6,8,10,12,14,-1,-1,-1,-1,-1,-1,-1,-1],"split_conditions":[1.67E2,6.769E3,1.88E2,5.31E2,4.68E2,1.669E3,1.1719E4,-6.9419615E-2,1.7367183E-3,-3.6942656E-3,-7.3066026E-2,2.9824716E-3,8.7370194E-2,1.3538208E-3,2.3247978E-2],"split_indices":[1,2,1,5,5,5,2,0,0,0,0,0,0,0,0],"split_type":[0,0,0,0,0,0,0,0,0,0,0,0,0,0,0],"sum_hessian":[1.8941941E3,4.8623928E1,1.8455702E3,4.115537E1,7.4685607E0,9.822172E0,1.8357479E3,4.067813E0,3.7087555E1,1.0302316E0,6.438329E0,5.294466E0,4.527706E0,1.8043701E3,3.1377861E1],"tree_param":{"num_deleted":"0","num_feature":"6","num_nodes":"15","size_leaf_vector":"1"}},{"base_weights":[4.2997606E-4,-1.8650678E-1,1.5114581E-2,6.266725E-1,-2.21353E-1,5.546517E-1,7.1117394E-3,-4.9543686E-2,9.129545E-2,5.230927E-3,-2.3364786E-2,-5.312959E-2,7.941332E-2,6.320207E-3,-2.3984245E-3],"categories":[],"categories_nodes":[],"categories_segments":[],"categories_sizes":[],"default_left":[0,0,0,0,0,0,0,0,0,0,0,0,0,0,0],"id":45,"left_children":[1,3,5,7,9,11,13,-1,-1,-1,-1,-1,-1,-1,-1],"loss_changes":[5.2125773E0,4.0576105E0,7.5977864E0,4.517232E0,2.722817E0,1.4389145E1,4.6310835E0,0E0,0E0,0E0,0E0,0E0,0E0,0E0,0E0],"parents":[2147483647,0,0,1,1,2,2,3,3,4,4,5,5,6,6],"right_children":[2,4,6,8,10,12,14,-1,-1,-1,-1,-1,-1,-1,-1],"split_conditions":[9.82E2,8.76E2,1.128E3,4.089E3,1.96E2,1.103E3,4.296E3,-4.9543686E-2,9.129545E-2,5.230927E-3,-2.3364786E-2,-5.312959E-2,7.941332E-2,6.320207E-3,-2.3984245E-3],"split_indices":[0,3,0,2,0,5,0,0,0,0,0,0,0,0,0],"split_type":[0,0,0,0,0,0,0,0,0,0,0,0,0,0,0],"sum_hessian":[1.8968444E3,1.3729987E2,1.7595444E3,4.9439015E0,1.3235597E2,2.4719122E1,1.7348253E3,1.3853897E0,3.5585117E0,2.6196354E1,1.06159615E2,6.398674E0,1.8320448E1,5.900588E2,1.1447666E3],"tree_param":{"num_deleted":"0","num_feature":"6","num_nodes":"15","size_leaf_vector":"1"}},{"base_weights":[3.2591033E-3,-9.526142E-3,1.3886851E-1,2.2424003E-2,-1.24285035E-1,-5.6985056E-1,1.8508247E-1,1.4721721E-3,7.471751E-2,-3.907161E-3,-2.8689371E-2,-5.548352E-2,-2.668536E-3,1.1289499E-2,6.9190755E-2],"categories":[],"categories_nodes":[],"categories_segments":[],"categories_sizes":[],"default_left":[0,0,0,0,0,0,0,0,0,0,0,0,0,0,0],"id":46,"left_children":[1,3,5,7,9,11,13,-1,-1,-1,-1,-1,-1,-1,-1],"loss_changes":[3.3033879E0,6.38764E0,5.481908E0,4.979651E0,6.6897893E0,6.5997815E-1,4.506149E0,0E0,0E0,0E0,0E0,0E0,0E0,0E0,0E0],"parents":[2147483647,0,0,1,1,2,2,3,3,4,4,5,5,6,6],"right_children":[2,4,6,8,10,12,14,-1,-1,-1,-1,-1,-1,-1,-1],"split_conditions":[3.504E3,2.791E3,1.963E3,2.779E3,5.37E3,1.0084E4,3.469E3,1.4721721E-3,7.471751E-2,-3.907161E-3,-2.8689371E-2,-5.548352E-2,-2.668536E-3,1.1289499E-2,6.9190755E-2],"split_indices":[4,4,2,4,2,3,5,0,0,0,0,0,0,0,0],"split_type":[0,0,0,0,0,0,0,0,0,0,0,0,0,0,0],"sum_hessian":[1.9035253E3,1.7403728E3,1.6315247E2,1.3619856E3,3.7838724E2,9.293917E0,1.5385855E2,1.3570184E3,4.9671474E0,2.8714615E2,9.124109E1,7.3147097E0,1.9792069E0,1.4564694E2,8.2116E0],"tree_param":{"num_deleted":"0","num_feature":"6","num_nodes":"15","size_leaf_vector":"1"}},{"base_weights":[-2.7946834E-3,2.5145885E-2,-8.8522896E-2,1.693922E-2,3.5632583E-1,-3.4323874E-1,-1.467813E-2,2.1964347E-3,-2.9797181E-2,6.410309E-2,-1.40899485E-2,2.3881292E-2,-3.0616008E-2,2.3273215E-2,-5.6262915E-3],"categories":[],"categories_nodes":[],"categories_segments":[],"categories_sizes":[],"default_left":[0,0,0,0,0,0,0,0,0,0,0,0,0,0,0],"id":47,"left_children":[1,3,5,7,9,11,13,-1,-1,-1,-1,-1,-1,-1,-1],"loss_changes":[4.560352E0,3.8967636E0,8.797387E0,5.7527122E0,8.355901E0,2.7767324E0,6.2081556E0,0E0,0E0,0E0,0E0,0E0,0E0,0E0,0E0],"parents":[2147483647,0,0,1,1,2,2,3,3,4,4,5,5,6,6],"right_children":[2,4,6,8,10,12,14,-1,-1,-1,-1,-1,-1,-1,-1],"split_conditions":[2.92E3,2.812E3,3.125E3,2.791E3,1.806E3,1.556E3,3.198E3,2.1964347E-3,-2.9797181E-2,6.410309E-2,-1.40899485E-2,2.3881292E-2,-3.0616008E-2,2.3273215E-2,-5.6262915E-3],"split_indices":[4,4,4,4,5,3,4,0,0,0,0,0,0,0,0],"split_type":[0,0,0,0,0,0,0,0,0,0,0,0,0,0,0],"sum_hessian":[1.9019496E3,1.4349703E3,4.6697934E2,1.4012972E3,3.3673115E1,1.0413478E2,3.6284457E2,1.365354E3,3.594316E1,1.8068531E1,1.5604584E1,5.6520185E0,9.848276E1,5.5245846E1,3.0759872E2],"tree_param":{"num_deleted":"0","num_feature":"6","num_nodes":"15","size_leaf_vector":"1"}},{"base_weights":[-1.45434E-2,5.2026376E-2,-4.385939E-2,-4.076879E-2,1.46091E-1,-8.303801E-2,3.7086434E-3,2.3230945E-3,-1.6367478E-2,-6.4048013E-3,2.0551898E-2,-2.2588556E-3,-2.2530414E-2,-8.840147E-3,5.338342E-3],"categories":[],"categories_nodes":[],"categories_segments":[],"categories_sizes":[],"default_left":[0,0,0,0,0,0,0,0,0,0,0,0,0,0,0],"id":48,"left_children":[1,3,5,7,9,11,13,-1,-1,-1,-1,-1,-1,-1,-1],"loss_changes":[3.7037375E0,5.0716085E0,2.4553397E0,3.355875E0,7.2481084E0,7.8542094E0,4.296572E0,0E0,0E0,0E0,0E0,0E0,0E0,0E0,0E0],"parents":[2147483647,0,0,1,1,2,2,3,3,4,4,5,5,6,6],"right_children":[2,4,6,8,10,12,14,-1,-1,-1,-1,-1,-1,-1,-1],"split_conditions":[1.147E3,5.51E2,2.357E3,3.795E3,3.982E3,2.27E3,1.371E3,2.3230945E-3,-1.6367478E-2,-6.4048013E-3,2.0551898E-2,-2.2588556E-3,-2.2530414E-2,-8.840147E-3,5.338342E-3],"split_indices":[5,5,5,1,0,5,4,0,0,0,0,0,0,0,0],"split_type":[0,0,0,0,0,0,0,0,0,0,0,0,0,0,0],"sum_hessian":[1.8956661E3,5.793416E2,1.3163245E3,2.9192395E2,2.874177E2,7.214053E2,5.949192E2,2.0527628E2,8.664768E1,9.460757E1,1.928101E2,5.6628015E2,1.5512512E2,2.1127611E2,3.836431E2],"tree_param":{"num_deleted":"0","num_feature":"6","num_nodes":"15","size_leaf_vector":"1"}},{"base_weights":[5.229721E-3,-1.5297802E-2,1.1493538E-1,-3.6848355E-3,-3.5764518E-1,8.5664535E-1,7.274876E-2,1.3789146E-3,-1.0230435E-2,-6.200891E-2,-1.3332297E-2,1.0113809E-1,-2.2187456E-2,4.4131926E-3,7.653965E-2],"categories":[],"categories_nodes":[],"categories_segments":[],"categories_sizes":[],"default_left":[0,0,0,0,0,0,0,0,0,0,0,0,0,0,0],"id":49,"left_children":[1,3,5,7,9,11,13,-1,-1,-1,-1,-1,-1,-1,-1],"loss_changes":[4.2727213E0,6.353712E0,9.295068E0,4.021943E0,4.0514865E0,7.746209E0,4.3625174E0,0E0,0E0,0E0,0E0,0E0,0E0,0E0,0E0],"parents":[2147483647,0,0,1,1,2,2,3,3,4,4,5,5,6,6],"right_children":[2,4,6,8,10,12,14,-1,-1,-1,-1,-1,-1,-1,-1],"split_conditions":[4.528E3,4.361E3,4.576E3,7.847E3,4.404E3,2.383E3,1.1739E4,1.3789146E-3,-1.0230435E-2,-6.200891E-2,-1.3332297E-2,1.0113809E-1,-2.2187456E-2,4.4131926E-3,7.653965E-2],"split_indices":[1,1,1,2,1,5,3,0,0,0,0,0,0,0,0],"split_type":[0,0,0,0,0,0,0,0,0,0,0,0,0,0,0],"sum_hessian":[1.8955322E3,1.597481E3,2.9805133E2,1.5460474E3,5.1433617E1,1.5001111E1,2.8305023E2,1.3238932E3,2.2215411E2,1.5184725E1,3.6248894E1,1.0950432E1,4.0506787E0,2.7857147E2,4.478746E0],"tree_param":{"num_deleted":"0","num_feature":"6","num_nodes":"15","size_leaf_vector":"1"}},{"base_weights":[4.1408483E-3,-1.0067939E-1,2.3519732E-2,-2.7627E-2,-3.970644E-1,4.7540942E-1,1.1819264E-2,-3.1350905E-3,9.874175E-2,1.8434333E-2,-3.9442442E-2,2.0228548E-2,8.072642E-2,5.4043543E-4,3.824818E-2],"categories":[],"categories_nodes":[],"categories_segments":[],"categories_sizes":[],"default_left":[0,0,0,0,0,0,0,0,0,0,0,0,0,0,0],"id":50,"left_children":[1,3,5,7,9,11,13,-1,-1,-1,-1,-1,-1,-1,-1],"loss_changes":[3.857803E0,6.405233E0,8.468245E0,3.532588E0,3.6377516E0,4.5460176E0,3.68788E0,0E0,0E0,0E0,0E0,0E0,0E0,0E0,0E0],"parents":[2147483647,0,0,1,1,2,2,3,3,4,4,5,5,6,6],"right_children":[2,4,6,8,10,12,14,-1,-1,-1,-1,-1,-1,-1,-1],"split_conditions":[1.936E3,1.645E3,2.128E3,3.631E3,4.55E2,4.993E3,1.1924E4,-3.1350905E-3,9.874175E-2,1.8434333E-2,-3.9442442E-2,2.0228548E-2,8.072642E-2,5.4043543E-4,3.824818E-2],"split_indices":[0,0,0,5,5,2,2,0,0,0,0,0,0,0,0],"split_type":[0,0,0,0,0,0,0,0,0,0,0,0,0,0,0],"sum_hessian":[1.8970145E3,2.95338E2,1.6016765E3,2.3781503E2,5.752297E1,3.9424164E1,1.5622523E3,2.3661607E2,1.1989532E0,7.444498E0,5.0078472E1,2.8861914E1,1.056225E1,1.5464722E3,1.5780157E1],"tree_param":{"num_deleted":"0","num_feature":"6","num_nodes":"15","size_leaf_vector":"1"}},{"base_weights":[1.0389868E-2,-4.7146197E-2,3.9963443E-2,-1.38415415E-2,-4.3874383E-1,1.579216E-1,-5.115057E-3,4.7628142E-5,-5.3262174E-2,-7.468322E-2,-2.6786122E-2,1.0387287E-2,7.913218E-2,-2.490101E-2,1.083109E-3],"categories":[],"categories_nodes":[],"categories_segments":[],"categories_sizes":[],"default_left":[0,0,0,0,0,0,0,0,0,0,0,0,0,0,0],"id":51,"left_children":[1,3,5,7,9,11,13,-1,-1,-1,-1,-1,-1,-1,-1],"loss_changes":[3.2086723E0,8.344576E0,6.6227655E0,5.5640993E0,2.2662601E0,7.909404E0,5.1553063E0,0E0,0E0,0E0,0E0,0E0,0E0,0E0,0E0],"parents":[2147483647,0,0,1,1,2,2,3,3,4,4,5,5,6,6],"right_children":[2,4,6,8,10,12,14,-1,-1,-1,-1,-1,-1,-1,-1],"split_conditions":[1.307E3,1.22E3,2.002E3,1.1549E4,4.371E3,1.991E3,2.086E3,4.7628142E-5,-5.3262174E-2,-7.468322E-2,-2.6786122E-2,1.0387287E-2,7.913218E-2,-2.490101E-2,1.083109E-3],"split_indices":[4,4,4,3,3,4,4,0,0,0,0,0,0,0,0],"split_type":[0,0,0,0,0,0,0,0,0,0,0,0,0,0,0],"sum_hessian":[1.8836309E3,6.392877E2,1.2443431E3,5.901333E2,4.9154404E1,3.4336008E2,9.0098303E2,5.7832556E2,1.1807735E1,7.145935E0,4.200847E1,3.332582E2,1.0101872E1,5.0844147E1,8.5013885E2],"tree_param":{"num_deleted":"0","num_feature":"6","num_nodes":"15","size_leaf_vector":"1"}},{"base_weights":[1.6055354E-3,1.4247507E-1,-1.3702713E-2,8.9694805E-2,6.664759E-1,-9.531192E-2,1.608644E-2,-6.139528E-2,1.1176957E-2,3.168642E-2,1.3477841E-1,-4.74213E-3,-3.084321E-2,9.585342E-3,-3.7332254E-3],"categories":[],"categories_nodes":[],"categories_segments":[],"categories_sizes":[],"default_left":[0,0,0,0,0,0,0,0,0,0,0,0,0,0,0],"id":52,"left_children":[1,3,5,7,9,11,13,-1,-1,-1,-1,-1,-1,-1,-1],"loss_changes":[4.124091E0,5.1245575E0,4.1953063E0,7.457706E0,4.0127664E0,4.8031826E0,8.23737E0,0E0,0E0,0E0,0E0,0E0,0E0,0E0,0E0],"parents":[2147483647,0,0,1,1,2,2,3,3,4,4,5,5,6,6],"right_children":[2,4,6,8,10,12,14,-1,-1,-1,-1,-1,-1,-1,-1],"split_conditions":[4.85E2,4.42E2,1.307E3,1.42E2,3.188E3,1.22E3,2.328E3,-6.139528E-2,1.1176957E-2,3.168642E-2,1.3477841E-1,-4.74213E-3,-3.084321E-2,9.585342E-3,-3.7332254E-3],"split_indices":[4,4,4,5,5,4,4,0,0,0,0,0,0,0,0],"split_type":[0,0,0,0,0,0,0,0,0,0,0,0,0,0,0],"sum_hessian":[1.9105255E3,1.8645183E2,1.7240736E3,1.7045393E2,1.5997891E1,4.604482E2,1.2636255E3,8.607365E0,1.6184657E2,1.3738607E1,2.2592835E0,4.1066367E2,4.978454E1,4.75953E2,7.876725E2],"tree_param":{"num_deleted":"0","num_feature":"6","num_nodes":"15","size_leaf_vector":"1"}},{"base_weights":[8.1691155E-3,-1.1800342E-2,1.1413477E-1,-3.0668935E-2,1.4336371E-1,9.199699E-1,6.616607E-2,-1.1976219E-3,-3.3291675E-2,1.6241742E-2,-2.556114E-2,1.6787851E-1,5.0857186E-2,9.858431E-3,-1.601265E-2],"categories":[],"categories_nodes":[],"categories_segments":[],"categories_sizes":[],"default_left":[0,0,0,0,0,0,0,0,0,0,0,0,0,0,0],"id":53,"left_children":[1,3,5,7,9,11,13,-1,-1,-1,-1,-1,-1,-1,-1],"loss_changes":[4.04479E0,4.7143173E0,1.1655088E1,8.67845E0,4.8861876E0,4.3444767E0,4.388515E0,0E0,0E0,0E0,0E0,0E0,0E0,0E0,0E0],"parents":[2147483647,0,0,1,1,2,2,3,3,4,4,5,5,6,6],"right_children":[2,4,6,8,10,12,14,-1,-1,-1,-1,-1,-1,-1,-1],"split_conditions":[4.528E3,8.896E3,4.576E3,7.719E3,1.1832E4,2.739E3,3.156E3,-1.1976219E-3,-3.3291675E-2,1.6241742E-2,-2.556114E-2,1.6787851E-1,5.0857186E-2,9.858431E-3,-1.601265E-2],"split_indices":[1,3,1,3,3,3,4,0,0,0,0,0,0,0,0],"split_type":[0,0,0,0,0,0,0,0,0,0,0,0,0,0,0],"sum_hessian":[1.9098204E3,1.6077291E3,3.020914E2,1.4341346E3,1.7359438E2,1.5950891E1,2.861405E2,1.3790128E3,5.5121857E1,1.5427237E2,1.9322016E1,1.8594187E0,1.4091472E1,2.3609135E2,5.0049145E1],"tree_param":{"num_deleted":"0","num_feature":"6","num_nodes":"15","size_leaf_vector":"1"}},{"base_weights":[7.450539E-3,1.4204215E-1,-9.015745E-3,3.282926E-1,1.9625092E-2,-1.0052482E-1,2.3125445E-2,1.4583995E-2,8.380669E-2,-7.6100724E-3,2.092222E-2,-4.2113625E-3,-3.782523E-2,6.5549957E-3,-3.8719447E-3],"categories":[],"categories_nodes":[],"categories_segments":[],"categories_sizes":[],"default_left":[0,0,0,0,0,0,0,0,0,0,0,0,0,0,0],"id":54,"left_children":[1,3,5,7,9,11,13,-1,-1,-1,-1,-1,-1,-1,-1],"loss_changes":[4.2062745E0,4.7105856E0,4.977335E0,8.418553E0,3.519637E0,7.8162804E0,5.2731247E0,0E0,0E0,0E0,0E0,0E0,0E0,0E0,0E0],"parents":[2147483647,0,0,1,1,2,2,3,3,4,4,5,5,6,6],"right_children":[2,4,6,8,10,12,14,-1,-1,-1,-1,-1,-1,-1,-1],"split_conditions":[5.5E2,4.296E3,1.307E3,3.952E3,2.357E3,1.22E3,2.763E3,1.4583995E-2,8.380669E-2,-7.6100724E-3,2.092222E-2,-4.2113625E-3,-3.782523E-2,6.5549957E-3,-3.8719447E-3],"split_indices":[4,0,4,0,5,4,4,0,0,0,0,0,0,0,0],"split_type":[0,0,0,0,0,0,0,0,0,0,0,0,0,0,0],"sum_hessian":[1.8963689E3,2.0588512E2,1.6904838E3,8.098674E1,1.2489838E2,4.3886502E2,1.2516188E3,6.8364426E1,1.262231E1,8.512467E1,3.9773705E1,3.8986346E2,4.9001556E1,6.8676953E2,5.6484924E2],"tree_param":{"num_deleted":"0","num_feature":"6","num_nodes":"15","size_leaf_vector":"1"}},{"base_weights":[6.6802534E-3,-4.7616625E-1,1.2281356E-2,-5.424842E-1,3.432809E-2,-2.866492E-1,2.0115096E-2,-4.8981924E-2,2.6137896E-2,-4.210873E-2,1.0543747E-2,6.29423E-2,1.2505661E-3],"categories":[],"categories_nodes":[],"categories_segments":[],"categories_sizes":[],"default_left":[0,0,0,0,0,0,0,0,0,0,0,0,0],"id":55,"left_children":[1,3,5,7,-1,9,11,-1,-1,-1,-1,-1,-1],"loss_changes":[5.1420007E0,1.5417218E0,4.404334E0,1.4591565E0,0E0,4.8872414E0,6.2818146E0,0E0,0E0,0E0,0E0,0E0,0E0],"parents":[2147483647,0,0,1,1,2,2,3,3,5,5,6,6],"right_children":[2,4,6,8,-1,10,12,-1,-1,-1,-1,-1,-1],"split_conditions":[2E1,1.0384E4,1.67E2,4.973E3,3.432809E-2,6.267E3,1.88E2,-4.8981924E-2,2.6137896E-2,-4.210873E-2,1.0543747E-2,6.29423E-2,1.2505661E-3],"split_indices":[5,3,1,1,0,0,1,0,0,0,0,0,0],"split_type":[0,0,0,0,0,0,0,0,0,0,0,0,0],"sum_hessian":[1.8981327E3,2.0802786E1,1.87733E3,1.9756233E1,1.0465528E0,4.7031864E1,1.8302981E3,1.85615E1,1.1947316E0,2.9738216E1,1.7293648E1,9.625881E0,1.8206721E3],"tree_param":{"num_deleted":"0","num_feature":"6","num_nodes":"13","size_leaf_vector":"1"}},{"base_weights":[6.9640684E-3,-3.6966732E-1,1.1531692E-2,-5.7537574E-1,8.9580727E-1,2.0820582E-2,-1.8539846E-1,-2.5542358E-2,-5.8318723E-2,1.4245017E-1,-4.5146957E-2,4.659115E-4,1.127765E-2,-3.4852635E-2,2.618035E-3],"categories":[],"categories_nodes":[],"categories_segments":[],"categories_sizes":[],"default_left":[0,0,0,0,0,0,0,0,0,0,0,0,0,0,0],"id":56,"left_children":[1,3,5,7,9,11,13,-1,-1,-1,-1,-1,-1,-1,-1],"loss_changes":[3.2799037E0,6.462578E0,3.4469953E0,5.642543E-1,5.6372056E0,3.239574E0,4.6479135E0,0E0,0E0,0E0,0E0,0E0,0E0,0E0,0E0],"parents":[2147483647,0,0,1,1,2,2,3,3,4,4,5,5,6,6],"right_children":[2,4,6,8,10,12,14,-1,-1,-1,-1,-1,-1,-1,-1],"split_conditions":[2E1,1.1069E4,1.1069E4,2.423E3,3.53E3,9.816E3,1.1367E4,-2.5542358E-2,-5.8318723E-2,1.4245017E-1,-4.5146957E-2,4.659115E-4,1.127765E-2,-3.4852635E-2,2.618035E-3],"split_indices":[5,0,0,1,1,0,0,0,0,0,0,0,0,0,0],"split_type":[0,0,0,0,0,0,0,0,0,0,0,0,0,0,0],"sum_hessian":[1.9030988E3,2.1845648E1,1.8812532E3,1.9260153E1,2.5854943E0,1.7973684E3,8.388481E1,8.375321E0,1.0884831E1,1.4732472E0,1.1122471E0,1.5988538E3,1.985146E2,3.8600315E1,4.5284492E1],"tree_param":{"num_deleted":"0","num_feature":"6","num_nodes":"15","size_leaf_vector":"1"}},{"base_weights":[-7.4091195E-3,-3.35745E-2,4.949939E-2,-5.084066E-3,-2.2675514E-1,-7.7700615E-2,1.1724601E-1,-3.169615E-2,1.5939899E-4,5.0464444E-2,-2.0030625E-2,-2.6691395E-3,-4.9555883E-2,5.546301E-2,7.7083856E-3],"categories":[],"categories_nodes":[],"categories_segments":[],"categories_sizes":[],"default_left":[0,0,0,0,0,0,0,0,0,0,0,0,0,0,0],"id":57,"left_children":[1,3,5,7,9,11,13,-1,-1,-1,-1,-1,-1,-1,-1],"loss_changes":[2.8264644E0,7.154648E0,5.1615715E0,3.139646E0,3.543357E0,4.984568E0,4.6329165E0,0E0,0E0,0E0,0E0,0E0,0E0,0E0,0E0],"parents":[2147483647,0,0,1,1,2,2,3,3,4,4,5,5,6,6],"right_children":[2,4,6,8,10,12,14,-1,-1,-1,-1,-1,-1,-1,-1],"split_conditions":[2.357E3,2.238E3,1.345E3,1.19E2,3.94E2,9.882E3,2.14E2,-3.169615E-2,1.5939899E-4,5.0464444E-2,-2.0030625E-2,-2.6691395E-3,-4.9555883E-2,5.546301E-2,7.7083856E-3],"split_indices":[5,5,4,4,3,3,1,0,0,0,0,0,0,0,0],"split_type":[0,0,0,0,0,0,0,0,0,0,0,0,0,0,0],"sum_hessian":[1.8960721E3,1.2991565E3,5.969158E2,1.1330758E3,1.660806E2,2.0738533E2,3.8953043E2,1.9159353E1,1.1139165E3,3.764143E0,1.6231645E2,1.9267824E2,1.4707099E1,1.2506193E1,3.7702423E2],"tree_param":{"num_deleted":"0","num_feature":"6","num_nodes":"15","size_leaf_vector":"1"}},{"base_weights":[-2.6714424E-2,1.2729871E-1,-3.8214702E-2,-1.5282321E-1,2.7697605E-1,-3.5710566E-2,-6.467285E-1,8.690055E-2,-1.705996E-2,3.0228456E-2,-2.3123464E-2,-3.2574642E-3,2.5927352E-2,-1.75314E-2,-6.724469E-2],"categories":[],"categories_nodes":[],"categories_segments":[],"categories_sizes":[],"default_left":[0,0,0,0,0,0,0,0,0,0,0,0,0,0,0],"id":58,"left_children":[1,3,5,7,9,11,13,-1,-1,-1,-1,-1,-1,-1,-1],"loss_changes":[3.3834925E0,5.609164E0,2.6828272E0,3.741845E0,5.070597E0,3.2015696E0,4.1411877E-1,0E0,0E0,0E0,0E0,0E0,0E0,0E0,0E0],"parents":[2147483647,0,0,1,1,2,2,3,3,4,4,5,5,6,6],"right_children":[2,4,6,8,10,12,14,-1,-1,-1,-1,-1,-1,-1,-1],"split_conditions":[4.21E2,1.88E2,1.2109E4,7.84E2,3.033E3,1.1719E4,1.655E3,8.690055E-2,-1.705996E-2,3.0228456E-2,-2.3123464E-2,-3.2574642E-3,2.5927352E-2,-1.75314E-2,-6.724469E-2],"split_indices":[4,4,2,2,5,2,5,0,0,0,0,0,0,0,0],"split_type":[0,0,0,0,0,0,0,0,0,0,0,0,0,0,0],"sum_hessian":[1.9065427E3,1.3177162E2,1.774771E3,4.588207E1,8.588955E1,1.7685519E3,6.219203E0,1.3440888E0,4.453798E1,7.317946E1,1.2710089E1,1.7451497E3,2.34022E1,2.6044414E0,3.6147614E0],"tree_param":{"num_deleted":"0","num_feature":"6","num_nodes":"15","size_leaf_vector":"1"}},{"base_weights":[2.2399414E-3,1.7448208E-1,-6.2067853E-3,-1.1812017E-1,4.8052633E-1,-1.8875776E-1,2.0332062E-3,1.3407264E-2,-2.2507021E-2,1.3308957E-1,2.4287095E-2,-3.401126E-4,-3.928493E-2,5.6749126E-3,-1.1670562E-3],"categories":[],"categories_nodes":[],"categories_segments":[],"categories_sizes":[],"default_left":[0,0,0,0,0,0,0,0,0,0,0,0,0,0,0],"id":59,"left_children":[1,3,5,7,9,11,13,-1,-1,-1,-1,-1,-1,-1,-1],"loss_changes":[2.7765043E0,8.045666E0,2.7372315E0,2.2114131E0,8.664166E0,4.381428E0,1.9959297E0,0E0,0E0,0E0,0E0,0E0,0E0,0E0,0E0],"parents":[2147483647,0,0,1,1,2,2,3,3,4,4,5,5,6,6],"right_children":[2,4,6,8,10,12,14,-1,-1,-1,-1,-1,-1,-1,-1],"split_conditions":[3.31E2,1.88E2,1.26E3,1.466E3,2.825E3,7.77E2,7.09E2,1.3407264E-2,-2.2507021E-2,1.3308957E-1,2.4287095E-2,-3.401126E-4,-3.928493E-2,5.6749126E-3,-1.1670562E-3],"split_indices":[4,4,3,5,3,3,5,0,0,0,0,0,0,0,0],"split_type":[0,0,0,0,0,0,0,0,0,0,0,0,0,0,0],"sum_hessian":[1.9066605E3,8.821243E1,1.8184481E3,4.5410492E1,4.280194E1,7.7590034E1,1.740858E3,1.6500216E1,2.8910276E1,4.475333E0,3.8326607E1,4.8812294E1,2.8777744E1,3.3769455E2,1.4031635E3],"tree_param":{"num_deleted":"0","num_feature":"6","num_nodes":"15","size_leaf_vector":"1"}},{"base_weights":[-3.8494018E-3,-1.7644587E-3,-6.03101E-1,-5.468231E-3,4.645833E-1,-6.981458E-2,2.9760774E-2,1.9196216E-4,-1.718655E-2,-9.4735725E-3,8.444719E-2],"categories":[],"categories_nodes":[],"categories_segments":[],"categories_sizes":[],"default_left":[0,0,0,0,0,0,0,0,0,0,0],"id":60,"left_children":[1,3,5,7,9,-1,-1,-1,-1,-1,-1],"loss_changes":[2.374939E0,3.2775993E0,2.0571346E0,3.1008582E0,5.276872E0,0E0,0E0,0E0,0E0,0E0,0E0],"parents":[2147483647,0,0,1,1,2,2,3,3,4,4],"right_children":[2,4,6,8,10,-1,-1,-1,-1,-1,-1],"split_conditions":[1.2109E4,1.1924E4,3.92E3,1.0831E4,3.656E3,-6.981458E-2,2.9760774E-2,1.9196216E-4,-1.718655E-2,-9.4735725E-3,8.444719E-2],"split_indices":[2,2,1,2,1,0,0,0,0,0,0],"split_type":[0,0,0,0,0,0,0,0,0,0,0],"sum_hessian":[1.9007067E3,1.895116E3,5.5906286E0,1.881164E3,1.39520855E1,4.462076E0,1.1285524E0,1.813984E3,6.717988E1,7.4261413E0,6.5259438E0],"tree_param":{"num_deleted":"0","num_feature":"6","num_nodes":"11","size_leaf_vector":"1"}},{"base_weights":[-3.1854387E-3,-8.57997E-3,2.8674206E-1,-4.056623E-3,-2.3545645E-1,1.7094497E-1,1.5744781E-1,4.3741096E-4,-1.0577943E-2,-2.26105E-3,-6.0859293E-2,5.6486134E-4,1.0783716E-1],"categories":[],"categories_nodes":[],"categories_segments":[],"categories_sizes":[],"default_left":[0,0,0,0,0,0,0,0,0,0,0,0,0],"id":61,"left_children":[1,3,5,7,9,-1,11,-1,-1,-1,-1,-1,-1],"loss_changes":[2.959702E0,1.9050046E0,7.9322042E0,2.2247663E0,3.9278162E0,0E0,5.9683867E0,0E0,0E0,0E0,0E0,0E0,0E0],"parents":[2147483647,0,0,1,1,2,2,3,3,4,4,6,6],"right_children":[2,4,6,8,10,-1,12,-1,-1,-1,-1,-1,-1],"split_conditions":[1.1719E4,1.1132E4,3.94E2,3.361E3,8.599E3,1.7094497E-1,1.1172E4,4.3741096E-4,-1.0577943E-2,-2.26105E-3,-6.0859293E-2,5.6486134E-4,1.0783716E-1],"split_indices":[2,2,3,5,3,0,3,0,0,0,0,0,0],"split_type":[0,0,0,0,0,0,0,0,0,0,0,0,0],"sum_hessian":[1.8897919E3,1.8562244E3,3.3567406E1,1.8209374E3,3.5287037E1,1.1784359E0,3.238897E1,1.6958728E3,1.2506456E2,2.6061243E1,9.225793E0,2.9649548E1,2.7394242E0],"tree_param":{"num_deleted":"0","num_feature":"6","num_nodes":"13","size_leaf_vector":"1"}},{"base_weights":[-7.855314E-3,-2.6853891E-2,9.121567E-2,-1.4977691E-2,-3.8168457E-1,3.6629003E-1,-1.5158683E-2,-6.76517E-3,1.6230058E-3,-3.911204E-2,1.6522199E-2,8.936021E-3,4.6808112E-2,-5.2856207E-2,1.777464E-3],"categories":[],"categories_nodes":[],"categories_segments":[],"categories_sizes":[],"default_left":[0,0,0,0,0,0,0,0,0,0,0,0,0,0,0],"id":62,"left_children":[1,3,5,7,9,11,13,-1,-1,-1,-1,-1,-1,-1,-1],"loss_changes":[3.570776E0,6.7010803E0,8.938419E0,3.7834134E0,3.3490295E0,4.679447E0,5.349725E0,0E0,0E0,0E0,0E0,0E0,0E0,0E0,0E0],"parents":[2147483647,0,0,1,1,2,2,3,3,4,4,5,5,6,6],"right_children":[2,4,6,8,10,12,14,-1,-1,-1,-1,-1,-1,-1,-1],"split_conditions":[4.528E3,4.361E3,4.743E3,1.307E3,1.0086E4,4.81E3,8.34E2,-6.76517E-3,1.6230058E-3,-3.911204E-2,1.6522199E-2,8.936021E-3,4.6808112E-2,-5.2856207E-2,1.777464E-3],"split_indices":[1,1,1,4,0,0,0,0,0,0,0,0,0,0,0],"split_type":[0,0,0,0,0,0,0,0,0,0,0,0,0,0,0],"sum_hessian":[1.8948197E3,1.5905359E3,3.0428387E2,1.5400331E3,5.0502773E1,8.417406E1,2.2010982E2,5.174939E2,1.0225392E3,4.285944E1,7.643336E0,3.9604366E1,4.4569687E1,1.1134108E1,2.0897571E2],"tree_param":{"num_deleted":"0","num_feature":"6","num_nodes":"15","size_leaf_vector":"1"}},{"base_weights":[-1.9433433E-3,-2.0229043E-1,1.0960814E-2,-6.13452E-1,-1.3597378E-1,7.412126E-2,-2.449906E-2,-3.1063838E-2,-7.1484946E-2,-7.576491E-3,-5.9292644E-2,8.5256506E-5,5.444245E-2,-1.8586893E-2,-7.675879E-4],"categories":[],"categories_nodes":[],"categories_segments":[],"categories_sizes":[],"default_left":[0,0,0,0,0,0,0,0,0,0,0,0,0,0,0],"id":63,"left_children":[1,3,5,7,9,11,13,-1,-1,-1,-1,-1,-1,-1,-1],"loss_changes":[4.8990865E0,3.0431972E0,3.9894116E0,6.394925E-1,2.427905E0,2.8371098E1,3.5322533E0,0E0,0E0,0E0,0E0,0E0,0E0,0E0,0E0],"parents":[2147483647,0,0,1,1,2,2,3,3,4,4,5,5,6,6],"right_children":[2,4,6,8,10,12,14,-1,-1,-1,-1,-1,-1,-1,-1],"split_conditions":[8.94E2,3.599E3,4.296E3,3.329E3,4.973E3,4.207E3,4.763E3,-3.1063838E-2,-7.1484946E-2,-7.576491E-3,-5.9292644E-2,8.5256506E-5,5.444245E-2,-1.8586893E-2,-7.675879E-4],"split_indices":[0,3,0,1,1,0,0,0,0,0,0,0,0,0,0],"split_type":[0,0,0,0,0,0,0,0,0,0,0,0,0,0,0],"sum_hessian":[1.8931129E3,1.1366705E2,1.7794458E3,1.4641257E1,9.9025795E1,6.394247E2,1.1400212E3,9.439755E0,5.201502E0,9.3786934E1,5.238859E0,5.7156824E2,6.78564E1,7.530567E1,1.0647155E3],"tree_param":{"num_deleted":"0","num_feature":"6","num_nodes":"15","size_leaf_vector":"1"}},{"base_weights":[-3.3376802E-4,4.9946774E-2,-2.6795805E-2,2.8645074E-2,4.202588E-1,-2.0930013E-1,8.356129E-3,6.5644835E-3,-1.0775429E-2,-2.0226897E-3,8.829641E-2,-1.4499004E-2,-4.6191473E-2,1.644329E-2,-6.009904E-4],"categories":[],"categories_nodes":[],"categories_segments":[],"categories_sizes":[],"default_left":[0,0,0,0,0,0,0,0,0,0,0,0,0,0,0],"id":64,"left_children":[1,3,5,7,9,11,13,-1,-1,-1,-1,-1,-1,-1,-1],"loss_changes":[2.5447166E0,5.190156E0,8.040697E0,5.46083E0,1.09289465E1,1.9862051E0,3.292228E0,0E0,0E0,0E0,0E0,0E0,0E0,0E0,0E0],"parents":[2147483647,0,0,1,1,2,2,3,3,4,4,5,5,6,6],"right_children":[2,4,6,8,10,12,14,-1,-1,-1,-1,-1,-1,-1,-1],"split_conditions":[1.274E3,5.13E3,1.659E3,3.856E3,7.49E2,5.04E3,1.83E3,6.5644835E-3,-1.0775429E-2,-2.0226897E-3,8.829641E-2,-1.4499004E-2,-4.6191473E-2,1.644329E-2,-6.009904E-4],"split_indices":[5,1,5,1,5,1,5,0,0,0,0,0,0,0,0],"split_type":[0,0,0,0,0,0,0,0,0,0,0,0,0,0,0],"sum_hessian":[1.9105591E3,6.584845E2,1.2520745E3,6.2368524E2,3.4799297E1,2.014125E2,1.050662E3,4.7037256E2,1.5331267E2,2.1649122E1,1.3150174E1,1.8853165E2,1.2880853E1,7.736445E1,9.7329755E2],"tree_param":{"num_deleted":"0","num_feature":"6","num_nodes":"15","size_leaf_vector":"1"}},{"base_weights":[-5.2167987E-3,7.5059375E-3,-1.6054949E-1,-1.5221447E-3,4.0817815E-1,-4.175316E-1,-3.249016E-2,-3.423694E-2,2.8601632E-4,5.028493E-2,-6.415511E-3,-1.7429406E-2,-4.9189422E-2,5.902945E-3,-5.1720504E-2],"categories":[],"categories_nodes":[],"categories_segments":[],"categories_sizes":[],"default_left":[0,0,0,0,0,0,0,0,0,0,0,0,0,0,0],"id":65,"left_children":[1,3,5,7,9,11,13,-1,-1,-1,-1,-1,-1,-1,-1],"loss_changes":[3.7607403E0,6.3644977E0,4.7274084E0,3.7436116E0,4.2233033E0,1.7505484E0,6.3928022E0,0E0,0E0,0E0,0E0,0E0,0E0,0E0,0E0],"parents":[2147483647,0,0,1,1,2,2,3,3,4,4,5,5,6,6],"right_children":[2,4,6,8,10,12,14,-1,-1,-1,-1,-1,-1,-1,-1],"split_conditions":[3.327E3,3.229E3,3.469E3,2E1,3.795E3,3.389E3,6.844E3,-3.423694E-2,2.8601632E-4,5.028493E-2,-6.415511E-3,-1.7429406E-2,-4.9189422E-2,5.902945E-3,-5.1720504E-2],"split_indices":[5,5,5,5,1,5,3,0,0,0,0,0,0,0,0],"split_type":[0,0,0,0,0,0,0,0,0,0,0,0,0,0,0],"sum_hessian":[1.9013516E3,1.7582882E3,1.4306332E2,1.7205172E3,3.7771072E1,4.682904E1,9.6234276E1,1.934298E1,1.7011742E3,2.5828579E1,1.1942496E1,2.4323076E1,2.2505962E1,8.2785225E1,1.344905E1],"tree_param":{"num_deleted":"0","num_feature":"6","num_nodes":"15","size_leaf_vector":"1"}},{"base_weights":[-4.7160315E-4,9.295805E-3,-1.2547126E-1,2.5559757E-3,2.725988E-1,4.8793428E-2,-2.5586462E-1,7.978181E-3,-9.26311E-4,4.8672326E-2,-4.940565E-3,-1.2701748E-2,2.9909436E-2,-2.4725532E-2,5.2283566E-2],"categories":[],"categories_nodes":[],"categories_segments":[],"categories_sizes":[],"default_left":[0,0,0,0,0,0,0,0,0,0,0,0,0,0,0],"id":66,"left_children":[1,3,5,7,9,11,13,-1,-1,-1,-1,-1,-1,-1,-1],"loss_changes":[2.3231673E0,3.1313858E0,3.1461456E0,2.3661807E0,4.9823637E0,4.0986357E0,4.0264735E0,0E0,0E0,0E0,0E0,0E0,0E0,0E0,0E0],"parents":[2147483647,0,0,1,1,2,2,3,3,4,4,5,5,6,6],"right_children":[2,4,6,8,10,12,14,-1,-1,-1,-1,-1,-1,-1,-1],"split_conditions":[1.0041E4,9.342E3,1.655E3,1.645E3,1.869E3,1.081E3,3.502E3,7.978181E-3,-9.26311E-4,4.8672326E-2,-4.940565E-3,-1.2701748E-2,2.9909436E-2,-2.4725532E-2,5.2283566E-2],"split_indices":[2,2,5,0,5,5,5,0,0,0,0,0,0,0,0],"split_type":[0,0,0,0,0,0,0,0,0,0,0,0,0,0,0],"sum_hessian":[1.9008412E3,1.763934E3,1.3690726E2,1.7208936E3,4.3040417E1,5.886402E1,7.8043236E1,2.1776874E2,1.5031248E3,2.1064735E1,2.1975681E1,3.6237427E1,2.2626595E1,7.435337E1,3.6898642E0],"tree_param":{"num_deleted":"0","num_feature":"6","num_nodes":"15","size_leaf_vector":"1"}},{"base_weights":[2.9290935E-3,-1.3295452E-1,1.7949803E-2,-8.81533E-2,-6.5818906E-1,4.83257E-3,1.55188E-1,3.6679674E-2,-9.232752E-3,9.867906E-4,-6.506957E-2,3.2264404E-2,2.041622E-5,5.970383E-3,5.1496055E-2],"categories":[],"categories_nodes":[],"categories_segments":[],"categories_sizes":[],"default_left":[0,0,0,0,0,0,0,0,0,0,0,0,0,0,0],"id":67,"left_children":[1,3,5,7,9,11,13,-1,-1,-1,-1,-1,-1,-1,-1],"loss_changes":[3.8638504E0,4.376029E0,3.067577E0,2.6570268E0,1.5349212E0,2.8394003E0,5.8025446E0,0E0,0E0,0E0,0E0,0E0,0E0,0E0,0E0],"parents":[2147483647,0,0,1,1,2,2,3,3,4,4,5,5,6,6],"right_children":[2,4,6,8,10,12,14,-1,-1,-1,-1,-1,-1,-1,-1],"split_conditions":[2.957E3,3.313E3,3.504E3,3.23E2,7.19E2,3.186E3,9.759E3,3.6679674E-2,-9.232752E-3,9.867906E-4,-6.506957E-2,3.2264404E-2,2.041622E-5,5.970383E-3,5.1496055E-2],"split_indices":[2,5,4,4,4,2,0,0,0,0,0,0,0,0,0],"split_type":[0,0,0,0,0,0,0,0,0,0,0,0,0,0,0],"sum_hessian":[1.8908835E3,1.874332E2,1.7034504E3,1.7377817E2,1.3655018E1,1.5557837E3,1.4766667E2,7.501717E0,1.6627646E2,2.7392848E0,1.0915733E1,1.667949E1,1.5391042E3,1.2775243E2,1.9914248E1],"tree_param":{"num_deleted":"0","num_feature":"6","num_nodes":"15","size_leaf_vector":"1"}},{"base_weights":[-1.0222274E-2,1.3158505E-2,-8.3116904E-2,1.7174989E-1,-6.7722294E-3,-3.0563974E-1,-5.4514155E-2,2.0150019E-2,-1.9237908E-2,-9.25205E-3,2.4477004E-3,-1.6735913E-2,-7.256377E-2,-2.0779641E-3,-2.1578485E-2],"categories":[],"categories_nodes":[],"categories_segments":[],"categories_sizes":[],"default_left":[0,0,0,0,0,0,0,0,0,0,0,0,0,0,0],"id":68,"left_children":[1,3,5,7,9,11,13,-1,-1,-1,-1,-1,-1,-1,-1],"loss_changes":[3.247733E0,4.5628185E0,2.928667E0,5.3835645E0,5.2236543E0,2.8546734E0,2.519071E0,0E0,0E0,0E0,0E0,0E0,0E0,0E0,0E0],"parents":[2147483647,0,0,1,1,2,2,3,3,4,4,5,5,6,6],"right_children":[2,4,6,8,10,12,14,-1,-1,-1,-1,-1,-1,-1,-1],"split_conditions":[4.763E3,5.22E2,5.8E2,2.979E3,1.345E3,1.1172E4,1.0227E4,2.0150019E-2,-1.9237908E-2,-9.25205E-3,2.4477004E-3,-1.6735913E-2,-7.256377E-2,-2.0779641E-3,-2.1578485E-2],"split_indices":[3,4,4,5,4,3,0,0,0,0,0,0,0,0,0],"split_type":[0,0,0,0,0,0,0,0,0,0,0,0,0,0,0],"sum_hessian":[1.9039323E3,1.442177E3,4.6175534E2,1.6015845E2,1.2820186E3,5.1489906E1,4.1026544E2,1.344198E2,2.573866E1,3.2704153E2,9.549769E2,4.5535713E1,5.9541926E0,3.6322006E2,4.704539E1],"tree_param":{"num_deleted":"0","num_feature":"6","num_nodes":"15","size_leaf_vector":"1"}},{"base_weights":[3.0903139E-3,-2.784454E-1,9.213414E-3,4.606599E-1,-3.7900695E-1,3.9379156E-1,5.1889517E-3,-9.3359705E-3,1.1703699E-1,-3.5404954E-2,6.749808E-2,-1.4421997E-2,8.636354E-2,-9.235938E-4,7.48495E-3],"categories":[],"categories_nodes":[],"categories_segments":[],"categories_sizes":[],"default_left":[0,0,0,0,0,0,0,0,0,0,0,0,0,0,0],"id":69,"left_children":[1,3,5,7,9,11,13,-1,-1,-1,-1,-1,-1,-1,-1],"loss_changes":[3.268271E0,3.1740932E0,2.8690484E0,3.2288585E0,3.1765575E0,7.752227E0,2.7174504E0,0E0,0E0,0E0,0E0,0E0,0E0,0E0,0E0],"parents":[2147483647,0,0,1,1,2,2,3,3,4,4,5,5,6,6],"right_children":[2,4,6,8,10,12,14,-1,-1,-1,-1,-1,-1,-1,-1],"split_conditions":[5.86E2,1.668E3,8.76E2,3.51E3,3.932E3,3.315E3,4.528E3,-9.3359705E-3,1.1703699E-1,-3.5404954E-2,6.749808E-2,-1.4421997E-2,8.636354E-2,-9.235938E-4,7.48495E-3],"split_indices":[3,2,3,1,4,1,1,0,0,0,0,0,0,0,0],"split_type":[0,0,0,0,0,0,0,0,0,0,0,0,0,0,0],"sum_hessian":[1.893402E3,3.9356236E1,1.8540458E3,4.2845864E0,3.5071648E1,1.819795E1,1.8358478E3,3.279217E0,1.0053694E0,3.39453E1,1.1263481E0,1.0306852E1,7.8910966E0,1.5442965E3,2.9155124E2],"tree_param":{"num_deleted":"0","num_feature":"6","num_nodes":"15","size_leaf_vector":"1"}},{"base_weights":[9.239276E-3,-2.3855516E-1,1.5639165E-2,-6.4182967E-1,-6.592945E-2,4.0639475E-2,-4.2701617E-2,-4.948261E-3,-5.467253E-2,5.080161E-2,-1.7321423E-2,2.6005155E-3,3.805205E-2,-1.2887117E-2,2.0272036E-3],"categories":[],"categories_nodes":[],"categories_segments":[],"categories_sizes":[],"default_left":[0,0,0,0,0,0,0,0,0,0,0,0,0,0,0],"id":70,"left_children":[1,3,5,7,9,11,13,-1,-1,-1,-1,-1,-1,-1,-1],"loss_changes":[3.0062687E0,3.2804334E0,2.6950595E0,2.999649E-1,3.7830863E0,4.5597267E0,4.470091E0,0E0,0E0,0E0,0E0,0E0,0E0,0E0,0E0],"parents":[2147483647,0,0,1,1,2,2,3,3,4,4,5,5,6,6],"right_children":[2,4,6,8,10,12,14,-1,-1,-1,-1,-1,-1,-1,-1],"split_conditions":[1.67E2,3.865E3,2.763E3,1.96E2,4.296E3,2.672E3,3.125E3,-4.948261E-3,-5.467253E-2,5.080161E-2,-1.7321423E-2,2.6005155E-3,3.805205E-2,-1.2887117E-2,2.0272036E-3],"split_indices":[1,0,4,0,0,4,4,0,0,0,0,0,0,0,0],"split_type":[0,0,0,0,0,0,0,0,0,0,0,0,0,0,0],"sum_hessian":[1.8923221E3,4.6729984E1,1.8455922E3,1.3192552E1,3.3537434E1,1.2921716E3,5.5342053E2,1.048884E0,1.2143667E1,5.361963E0,2.817547E1,1.2695114E3,2.2660244E1,2.0148476E2,3.5193576E2],"tree_param":{"num_deleted":"0","num_feature":"6","num_nodes":"15","size_leaf_vector":"1"}},{"base_weights":[-7.2743394E-3,-3.1325817E-3,-5.340206E-1,-7.520366E-3,4.7058848E-1,-6.834352E-1,2.6581615E-1,-1.0705756E-2,4.6315265E-4,9.494359E-3,1.2298395E-1,-6.9869794E-2,-3.9713066E-2,3.4858994E-2,-3.150717E-3],"categories":[],"categories_nodes":[],"categories_segments":[],"categories_sizes":[],"default_left":[0,0,0,0,0,0,0,0,0,0,0,0,0,0,0],"id":71,"left_children":[1,3,5,7,9,11,13,-1,-1,-1,-1,-1,-1,-1,-1],"loss_changes":[4.1361303E0,3.917192E0,1.9492793E0,3.1385283E0,6.30995E0,1.9099712E-2,1.7523484E-1,0E0,0E0,0E0,0E0,0E0,0E0,0E0,0E0],"parents":[2147483647,0,0,1,1,2,2,3,3,4,4,5,5,6,6],"right_children":[2,4,6,8,10,12,14,-1,-1,-1,-1,-1,-1,-1,-1],"split_conditions":[5.358E3,5.311E3,9.342E3,2.856E3,1.0851E4,4.653E3,1.0724E4,-1.0705756E-2,4.6315265E-4,9.494359E-3,1.2298395E-1,-6.9869794E-2,-3.9713066E-2,3.4858994E-2,-3.150717E-3],"split_indices":[1,1,2,2,0,0,2,0,0,0,0,0,0,0,0],"split_type":[0,0,0,0,0,0,0,0,0,0,0,0,0,0,0],"sum_hessian":[1.8956348E3,1.881844E3,1.379082E1,1.8655487E3,1.6295294E1,1.1742734E1,2.0480864E0,1.7698788E2,1.6885608E3,1.3088607E1,3.2066875E0,4.005203E0,7.737531E0,1.0408686E0,1.0072178E0],"tree_param":{"num_deleted":"0","num_feature":"6","num_nodes":"15","size_leaf_vector":"1"}},{"base_weights":[-7.042749E-3,1.622624E-2,-8.270974E-2,1.3800698E-3,1.7720447E-1,-3.7516055E-1,-4.207045E-2,2.6041472E-3,-8.8885E-3,6.870457E-2,8.835621E-3,5.9591644E-2,-3.4222487E-2,1.7023465E-1,-5.308532E-3],"categories":[],"categories_nodes":[],"categories_segments":[],"categories_sizes":[],"default_left":[0,0,0,0,0,0,0,0,0,0,0,0,0,0,0],"id":72,"left_children":[1,3,5,7,9,11,13,-1,-1,-1,-1,-1,-1,-1,-1],"loss_changes":[3.3532257E0,3.481429E0,5.307582E0,4.684025E0,5.502164E0,3.5320306E0,2.092575E1,0E0,0E0,0E0,0E0,0E0,0E0,0E0,0E0],"parents":[2147483647,0,0,1,1,2,2,3,3,4,4,5,5,6,6],"right_children":[2,4,6,8,10,12,14,-1,-1,-1,-1,-1,-1,-1,-1],"split_conditions":[2.952E3,4.914E3,3.094E3,3.856E3,4.951E3,9.8E2,3.116E3,2.6041472E-3,-8.8885E-3,6.870457E-2,8.835621E-3,5.9591644E-2,-3.4222487E-2,1.7023465E-1,-5.308532E-3],"split_indices":[4,1,4,1,1,2,4,0,0,0,0,0,0,0,0],"split_type":[0,0,0,0,0,0,0,0,0,0,0,0,0,0,0],"sum_hessian":[1.9027284E3,1.4558219E3,4.4690643E2,1.3338195E3,1.22002525E2,5.3521366E1,3.9338507E2,1.0449559E3,2.888635E2,9.825117E0,1.1217741E2,1.8112818E0,5.1710083E1,3.3952591E0,3.899898E2],"tree_param":{"num_deleted":"0","num_feature":"6","num_nodes":"15","size_leaf_vector":"1"}},{"base_weights":[-3.703464E-3,-1.9520788E-2,7.8276396E-2,2.813902E-3,-1.3860989E-1,1.3720967E-1,-1.9739786E-1,-7.8608876E-4,2.8834766E-2,-6.1235383E-2,-6.882917E-3,-2.2092547E-2,1.41790975E-2,-4.8851613E-2,1.8140348E-2],"categories":[],"categories_nodes":[],"categories_segments":[],"categories_sizes":[],"default_left":[0,0,0,0,0,0,0,0,0,0,0,0,0,0,0],"id":73,"left_children":[1,3,5,7,9,11,13,-1,-1,-1,-1,-1,-1,-1,-1],"loss_changes":[2.4504404E0,4.213331E0,4.9927816E0,6.037081E0,8.17824E0,4.2254295E0,9.6461735E0,0E0,0E0,0E0,0E0,0E0,0E0,0E0,0E0],"parents":[2147483647,0,0,1,1,2,2,3,3,4,4,5,5,6,6],"right_children":[2,4,6,8,10,12,14,-1,-1,-1,-1,-1,-1,-1,-1],"split_conditions":[4.528E3,3.816E3,3.156E3,3.73E3,3.06E2,2.534E3,1.83E3,-7.8608876E-4,2.8834766E-2,-6.1235383E-2,-6.882917E-3,-2.2092547E-2,1.41790975E-2,-4.8851613E-2,1.8140348E-2],"split_indices":[1,1,4,1,5,3,5,0,0,0,0,0,0,0,0],"split_type":[0,0,0,0,0,0,0,0,0,0,0,0,0,0,0],"sum_hessian":[1.8875701E3,1.5829208E3,3.0464935E2,1.3337563E3,2.4916437E2,2.5140631E2,5.3243027E1,1.2891637E3,4.459264E1,1.8231451E1,2.3093292E2,2.1675175E1,2.2973114E2,2.6745481E1,2.6497543E1],"tree_param":{"num_deleted":"0","num_feature":"6","num_nodes":"15","size_leaf_vector":"1"}},{"base_weights":[-2.9330791E-3,-6.9126916E-1,-1.2954441E-4,-6.2443726E-2,-3.8184992E-3,2.3044136E-1,-1.077184E-2,1.1626266E-2,6.1196037E-2,-1.2796994E-4,-1.12114E-2],"categories":[],"categories_nodes":[],"categories_segments":[],"categories_sizes":[],"default_left":[0,0,0,0,0,0,0,0,0,0,0],"id":74,"left_children":[1,3,5,-1,-1,7,9,-1,-1,-1,-1],"loss_changes":[3.6694386E0,4.0589237E-1,4.651997E0,0E0,0E0,3.694097E0,2.1501317E0,0E0,0E0,0E0,0E0],"parents":[2147483647,0,0,1,1,2,2,5,5,6,6],"right_children":[2,4,6,-1,-1,8,10,-1,-1,-1,-1],"split_conditions":[2.9E1,4.612E3,3.31E2,-6.2443726E-2,-3.8184992E-3,2.86E2,5.015E3,1.1626266E-2,6.1196037E-2,-1.2796994E-4,-1.12114E-2],"split_indices":[4,1,4,0,0,4,1,0,0,0,0],"split_type":[0,0,0,0,0,0,0,0,0,0,0],"sum_hessian":[1.9005326E3,6.7131786E0,1.8938195E3,5.7083635E0,1.0048151E0,8.264385E1,1.8111755E3,7.238884E1,1.0255011E1,1.6922123E3,1.1896334E2],"tree_param":{"num_deleted":"0","num_feature":"6","num_nodes":"11","size_leaf_vector":"1"}},{"base_weights":[2.6757447E-3,-1.2390416E-2,1.5994564E-1,7.9955254E-4,-1.9149029E-1,6.9964286E-3,2.8602046E-1,-7.047068E-4,1.9255884E-2,7.2251715E-2,-1.7498244E-2,1.7855037E-2,-3.0775676E-2,1.03911914E-1,1.9111227E-2],"categories":[],"categories_nodes":[],"categories_segments":[],"categories_sizes":[],"default_left":[0,0,0,0,0,0,0,0,0,0,0,0,0,0,0],"id":75,"left_children":[1,3,5,7,9,11,13,-1,-1,-1,-1,-1,-1,-1,-1],"loss_changes":[4.500115E0,4.0948825E0,3.1996512E0,3.7257955E0,3.7426558E0,6.525522E0,4.0332146E0,0E0,0E0,0E0,0E0,0E0,0E0,0E0,0E0],"parents":[2147483647,0,0,1,1,2,2,3,3,4,4,5,5,6,6],"right_children":[2,4,6,8,10,12,14,-1,-1,-1,-1,-1,-1,-1,-1],"split_conditions":[3.504E3,3.248E3,1.748E3,3.137E3,1.17E2,1.156E3,1.817E3,-7.047068E-4,1.9255884E-2,7.2251715E-2,-1.7498244E-2,1.7855037E-2,-3.0775676E-2,1.03911914E-1,1.9111227E-2],"split_indices":[4,4,5,4,1,5,5,0,0,0,0,0,0,0,0],"split_type":[0,0,0,0,0,0,0,0,0,0,0,0,0,0,0],"sum_hessian":[1.897384E3,1.7323495E3,1.650346E2,1.6144475E3,1.1790188E2,7.504652E1,8.99881E1,1.5532023E3,6.1245277E1,2.0817604E0,1.1582012E2,4.8633713E1,2.6412802E1,2.8201497E0,8.7167946E1],"tree_param":{"num_deleted":"0","num_feature":"6","num_nodes":"15","size_leaf_vector":"1"}},{"base_weights":[8.518196E-3,2.7337437E-3,3.2915306E-1,4.8571926E-2,-2.7731914E-2,-1.2005123E-1,6.478994E-1,6.9732574E-4,3.555169E-2,-7.0649334E-3,3.577248E-3,5.6586014E-3,-6.0995005E-2,8.650088E-2,1.9278692E-2],"categories":[],"categories_nodes":[],"categories_segments":[],"categories_sizes":[],"default_left":[0,0,0,0,0,0,0,0,0,0,0,0,0,0,0],"id":76,"left_children":[1,3,5,7,9,11,13,-1,-1,-1,-1,-1,-1,-1,-1],"loss_changes":[3.5103374E0,2.5996842E0,4.8801365E0,1.1721404E1,4.912314E0,1.8634672E0,3.2266388E0,0E0,0E0,0E0,0E0,0E0,0E0,0E0,0E0],"parents":[2147483647,0,0,1,1,2,2,3,3,4,4,5,5,6,6],"right_children":[2,4,6,8,10,12,14,-1,-1,-1,-1,-1,-1,-1,-1],"split_conditions":[1.1719E4,4.232E3,5.22E3,4.207E3,8.213E3,4.232E3,7.483E3,6.9732574E-4,3.555169E-2,-7.0649334E-3,3.577248E-3,5.6586014E-3,-6.0995005E-2,8.650088E-2,1.9278692E-2],"split_indices":[2,0,0,0,0,0,0,0,0,0,0,0,0,0,0],"split_type":[0,0,0,0,0,0,0,0,0,0,0,0,0,0,0],"sum_hessian":[1.8921595E3,1.8596194E3,3.254016E1,7.422486E2,1.1173707E3,1.3764886E1,1.8775274E1,6.752773E2,6.697134E1,6.084081E2,5.0896262E2,1.1299047E1,2.4658382E0,8.289655E0,1.04856205E1],"tree_param":{"num_deleted":"0","num_feature":"6","num_nodes":"15","size_leaf_vector":"1"}},{"base_weights":[-9.558079E-3,-1.3264385E-1,4.6972805E-3,-8.622422E-3,-4.1566944E-1,1.6304469E-1,-1.847306E-2,-3.0528072E-2,9.082073E-3,-5.2356906E-2,-1.28677E-2,1.084266E-2,8.989853E-2,-3.9001767E-2,-1.0954695E-3],"categories":[],"categories_nodes":[],"categories_segments":[],"categories_sizes":[],"default_left":[0,0,0,0,0,0,0,0,0,0,0,0,0,0,0],"id":77,"left_children":[1,3,5,7,9,11,13,-1,-1,-1,-1,-1,-1,-1,-1],"loss_changes":[3.328026E0,6.906683E0,6.2420363E0,6.3261156E0,3.5433598E0,5.5873446E0,3.3210394E0,0E0,0E0,0E0,0E0,0E0,0E0,0E0,0E0],"parents":[2147483647,0,0,1,1,2,2,3,3,4,4,5,5,6,6],"right_children":[2,4,6,8,10,12,14,-1,-1,-1,-1,-1,-1,-1,-1],"split_conditions":[4.02E2,3.764E3,7.65E2,1.002E3,4.662E3,7.58E2,7.79E2,-3.0528072E-2,9.082073E-3,-5.2356906E-2,-1.28677E-2,1.084266E-2,8.989853E-2,-3.9001767E-2,-1.0954695E-3],"split_indices":[5,1,5,1,1,5,5,0,0,0,0,0,0,0,0],"split_type":[0,0,0,0,0,0,0,0,0,0,0,0,0,0,0],"sum_hessian":[1.8953539E3,1.9586676E2,1.699487E3,1.3690544E2,5.896131E1,2.1616519E2,1.4833219E3,3.3250713E1,1.0365473E2,2.9628494E1,2.9332817E1,2.1125647E2,4.908725E0,1.3944021E1,1.4693778E3],"tree_param":{"num_deleted":"0","num_feature":"6","num_nodes":"15","size_leaf_vector":"1"}},{"base_weights":[-5.211121E-3,-3.176768E-2,5.7317104E-2,-1.1316441E-2,-1.8479785E-1,5.091672E-1,3.5432436E-2,-1.3756232E-3,4.040717E-2,6.669856E-2,-1.7502727E-2,4.5931716E-2,-4.3512825E-2,-3.5447054E-2,4.1206437E-3],"categories":[],"categories_nodes":[],"categories_segments":[],"categories_sizes":[],"default_left":[0,0,0,0,0,0,0,0,0,0,0,0,0,0,0],"id":78,"left_children":[1,3,5,7,9,11,13,-1,-1,-1,-1,-1,-1,-1,-1],"loss_changes":[3.1603146E0,4.178239E0,5.5925393E0,3.588941E0,5.6309147E0,2.1007156E0,4.194036E0,0E0,0E0,0E0,0E0,0E0,0E0,0E0,0E0],"parents":[2147483647,0,0,1,1,2,2,3,3,4,4,5,5,6,6],"right_children":[2,4,6,8,10,12,14,-1,-1,-1,-1,-1,-1,-1,-1],"split_conditions":[2.434E3,2.348E3,2.477E3,2.313E3,3.94E2,1.0889E4,1.26E3,-1.3756232E-3,4.040717E-2,6.669856E-2,-1.7502727E-2,4.5931716E-2,-4.3512825E-2,-3.5447054E-2,4.1206437E-3],"split_indices":[5,5,5,5,3,3,3,0,0,0,0,0,0,0,0],"split_type":[0,0,0,0,0,0,0,0,0,0,0,0,0,0,0],"sum_hessian":[1.9010946E3,1.3347153E3,5.663792E2,1.1783169E3,1.5639853E2,2.5135883E1,5.4124335E2,1.1660095E3,1.2307335E1,4.2903404E0,1.5210818E2,2.4103395E1,1.0324875E0,1.6728405E1,5.245149E2],"tree_param":{"num_deleted":"0","num_feature":"6","num_nodes":"15","size_leaf_vector":"1"}},{"base_weights":[-1.1062567E-2,1.6587624E-1,-2.143163E-2,6.927841E-2,5.715143E-1,-1.8910025E-1,-1.7115283E-3,1.3713353E-2,-4.5395434E-2,9.9319234E-2,1.6130805E-2,-2.0693343E-3,-2.9518709E-2,2.0106165E-2,-1.2082615E-3],"categories":[],"categories_nodes":[],"categories_segments":[],"categories_sizes":[],"default_left":[0,0,0,0,0,0,0,0,0,0,0,0,0,0,0],"id":79,"left_children":[1,3,5,7,9,11,13,-1,-1,-1,-1,-1,-1,-1,-1],"loss_changes":[3.471631E0,4.0651894E0,5.906709E0,5.6736984E0,4.7085056E0,5.510646E0,5.4239874E0,0E0,0E0,0E0,0E0,0E0,0E0,0E0,0E0],"parents":[2147483647,0,0,1,1,2,2,3,3,4,4,5,5,6,6],"right_children":[2,4,6,8,10,12,14,-1,-1,-1,-1,-1,-1,-1,-1],"split_conditions":[1.78E2,4.433E3,5.51E2,3.795E3,3.021E3,2.851E3,7.09E2,1.3713353E-2,-4.5395434E-2,9.9319234E-2,1.6130805E-2,-2.0693343E-3,-2.9518709E-2,2.0106165E-2,-1.2082615E-3],"split_indices":[5,1,5,1,0,1,5,0,0,0,0,0,0,0,0],"split_type":[0,0,0,0,0,0,0,0,0,0,0,0,0,0,0],"sum_hessian":[1.8892794E3,1.0375727E2,1.7855222E3,8.474666E1,1.9010609E1,1.8699791E2,1.5985243E3,7.366121E1,1.1085449E1,5.923918E0,1.3086691E1,9.863572E1,8.83622E1,7.94545E1,1.5190698E3],"tree_param":{"num_deleted":"0","num_feature":"6","num_nodes":"15","size_leaf_vector":"1"}},{"base_weights":[3.0215688E-3,7.701663E-3,-5.9489125E-1,-4.185736E-1,1.146014E-2,-2.4662516E-1,-7.380327E-2,-5.8788065E-2,-4.3734256E-3,2.4282516E-3,-4.3808464E-3,-5.345723E-2,2.2819085E-2],"categories":[],"categories_nodes":[],"categories_segments":[],"categories_sizes":[],"default_left":[0,0,0,0,0,0,0,0,0,0,0,0,0],"id":80,"left_children":[1,3,5,7,9,11,-1,-1,-1,-1,-1,-1,-1],"loss_changes":[5.300042E0,3.0147207E0,1.4510517E0,1.8527114E0,2.3327725E0,2.0955672E0,0E0,0E0,0E0,0E0,0E0,0E0,0E0],"parents":[2147483647,0,0,1,1,2,2,3,3,4,4,5,5],"right_children":[2,4,6,8,10,12,-1,-1,-1,-1,-1,-1,-1],"split_conditions":[5.358E3,6.6E1,2.002E3,2.93E3,5.37E3,1.124E3,-7.380327E-2,-5.8788065E-2,-4.3734256E-3,2.4282516E-3,-4.3808464E-3,-5.345723E-2,2.2819085E-2],"split_indices":[1,4,4,1,2,4,0,0,0,0,0,0,0],"split_type":[0,0,0,0,0,0,0,0,0,0,0,0,0],"sum_hessian":[1.8913927E3,1.8776825E3,1.3710225E1,1.544626E1,1.8622362E3,7.4956465E0,6.2145786E0,7.718567E0,7.7276936E0,1.4492903E3,4.1294592E2,4.0382767E0,3.4573698E0],"tree_param":{"num_deleted":"0","num_feature":"6","num_nodes":"13","size_leaf_vector":"1"}},{"base_weights":[-1.02052055E-2,-1.3254228E-2,5.8751214E-1,-1.24969065E-1,9.838754E-4,-2.9787138E-2,1.0003144E0,9.026269E-2,-1.1696336E-2,1.0146833E-3,-1.0699898E-2,7.141992E-2,-4.2267475E-2,1.2320246E-1,-2.1694187E-2],"categories":[],"categories_nodes":[],"categories_segments":[],"categories_sizes":[],"default_left":[0,0,0,0,0,0,0,0,0,0,0,0,0,0,0],"id":81,"left_children":[1,3,5,7,9,11,13,-1,-1,-1,-1,-1,-1,-1,-1],"loss_changes":[3.4584079E0,2.9980388E0,2.4841075E0,5.835309E0,2.6384091E0,2.693531E0,4.3982997E0,0E0,0E0,0E0,0E0,0E0,0E0,0E0,0E0],"parents":[2147483647,0,0,1,1,2,2,3,3,4,4,5,5,6,6],"right_children":[2,4,6,8,10,12,14,-1,-1,-1,-1,-1,-1,-1,-1],"split_conditions":[3.631E3,4.55E2,1.549E3,4.78E2,3.327E3,7.19E2,2.952E3,9.026269E-2,-1.1696336E-2,1.0146833E-3,-1.0699898E-2,7.141992E-2,-4.2267475E-2,1.2320246E-1,-2.1694187E-2],"split_indices":[5,5,4,2,5,4,4,0,0,0,0,0,0,0,0],"split_type":[0,0,0,0,0,0,0,0,0,0,0,0,0,0,0],"sum_hessian":[1.8923931E3,1.8837616E3,8.631453E0,2.1206699E2,1.6716947E3,3.8307855E0,4.800667E0,2.6647742E0,2.0940222E2,1.5389629E3,1.327318E2,1.0665523E0,2.764233E0,3.2218654E0,1.5788013E0],"tree_param":{"num_deleted":"0","num_feature":"6","num_nodes":"15","size_leaf_vector":"1"}},{"base_weights":[1.11598E-5,1.3556421E-1,-1.5140697E-2,8.017171E-2,7.094605E-1,-1.35948E-1,-5.9654578E-3,1.2621645E-2,-2.9149668E-2,7.988607E-2,-2.956035E-2,-3.8827015E-3,-4.155161E-2,2.7373323E-2,-1.0984221E-3],"categories":[],"categories_nodes":[],"categories_segments":[],"categories_sizes":[],"default_left":[0,0,0,0,0,0,0,0,0,0,0,0,0,0,0],"id":82,"left_children":[1,3,5,7,9,11,13,-1,-1,-1,-1,-1,-1,-1,-1],"loss_changes":[3.86689E0,5.960529E0,1.8762541E0,6.0513144E0,5.5268583E0,3.9799702E0,4.26206E0,0E0,0E0,0E0,0E0,0E0,0E0,0E0,0E0],"parents":[2147483647,0,0,1,1,2,2,3,3,4,4,5,5,6,6],"right_children":[2,4,6,8,10,12,14,-1,-1,-1,-1,-1,-1,-1,-1],"split_conditions":[4.85E2,4.42E2,9.82E2,2.979E3,8.407E3,3.198E3,1.147E3,1.2621645E-2,-2.9149668E-2,7.988607E-2,-2.956035E-2,-3.8827015E-3,-4.155161E-2,2.7373323E-2,-1.0984221E-3],"split_indices":[4,4,0,5,0,4,0,0,0,0,0,0,0,0,0],"split_type":[0,0,0,0,0,0,0,0,0,0,0,0,0,0,0],"sum_hessian":[1.8807246E3,1.8828886E2,1.6924357E3,1.727543E2,1.5534558E1,1.1849075E2,